"","PC1","PC2","PC3","PC4","PC5","PC6","PC7","PC8","PC9","PC10","PC11","PC12","PC13","PC14","PC15","PC16","PC17","PC18","PC19","PC20","PC21","PC22","PC23","PC24","PC25","PC26","PC27","PC28","PC29","PC30","PC31","PC32","PC33","PC34","PC35","PC36","PC37","PC38","PC39","PC40","PC41","PC42","PC43","PC44","PC45","PC46","PC47","PC48","PC49","PC50","PC51","PC52","PC53","PC54","PC55","PC56","PC57","PC58","PC59","PC60","PC61","PC62","PC63","PC64","PC65","PC66","PC67","PC68","PC69","PC70","PC71","PC72","PC73","PC74","PC75","PC76","PC77","PC78","PC79","PC80","PC81","PC82","PC83","PC84","PC85","PC86","PC87","PC88"
"ARP~tas_iasd",-0.0215657579876062,0.14428824705769,-0.0352366635535971,0.00176306721748484,0.028635733414335,-0.0192740912200466,0.0634628376548187,-0.00508442465500956,-0.0151558243201861,0.0228295286366179,0.0643962998651727,-0.0253785931374004,0.0335278482895662,0.0336785320255542,0.00345374653227685,-0.115821534192499,0.0279772169600413,0.0019964773885475,0.00190321469313887,-0.00865766344108453,-0.00314653201303671,0.0558797575352558,-0.0171957039062156,-0.00722672179345067,0.00773150764267696,-0.0195581676990932,-0.0455454040763691,0.0310397713180803,-0.0351428312616108,-0.00811942973205899,-0.00962744459846426,0.00707617986959439,-0.0213231372155177,0.0374020124780993,0.00809536652779309,0.0376386463473572,0.0314661923417269,-0.00511901431336365,-0.049198828924806,-0.00728760887690223,0.0524917035932782,0.0627173574174206,0.00499729603712163,0.00852740171183907,-0.00999412259298783,0.0242703186133083,-0.00491258732040928,-0.00346060766857964,0.0362583086152636,-0.00984418143448854,-0.0621216003960736,0.00968789565259482,-0.0271922055875193,-0.00695275850990169,0.00689463843974329,0.0447559862805008,-0.0374697040037738,-0.000937881710076799,-0.0281377119045603,0.000800573227199302,-0.00198520916758775,-0.0592281316325174,0.0191984195918856,-0.0722600117268569,-0.0198713091161717,0.00565039247414049,-0.072090938895149,-0.00421785731874625,0.017824204166337,-0.00391930976538052,0.023894022760269,-0.00138857282760554,0.0378335291211645,-0.0215440772659684,-0.0622641334021838,0.023921996667435,-0.0344920974168219,0.0615520829891973,-0.0858789301614836,-0.0226961080686747,0.00696128960329043,0.0016469536632464,-0.0265986827680927,0.0435726006340955,-0.0782471735898135,0.0877667372099568,-0.0328447066043577,0.0495524948030111
"CAF~tas_iasd",-0.0176689544346926,0.151379764625726,0.00551420529129952,0.0276951264153674,-0.0224660454401824,0.022006113599701,-0.0186010343271618,0.00154668545604419,-0.00329441459854561,-0.0247160541228909,0.0683282537906539,0.00999809830101306,0.0335721563224355,0.0242786746143672,-0.00482033327545809,-0.0392156552926039,0.0402248839393485,0.0134148096414533,0.0227518491838275,-0.0147590906310451,-0.0223225512526634,0.0425076340288939,0.0131396627269241,-0.00694375519915881,0.0312266981409498,0.0201736370351401,-0.0360367795058335,0.021778896394133,-0.0407500527517193,0.0322352513417363,-0.00770991089832857,0.00505496213264989,0.0289234175277954,-0.00790758303622389,-0.0299162838911718,-0.0174396857791339,0.0169561718130985,0.021731107538332,-0.0388512545121264,0.040442453036157,0.00149638984699283,0.000495125944070701,-0.0262815282632554,0.0026221326671143,0.0578239677726159,0.000181063003287955,-0.00926250213379386,0.0559913582537045,-0.0419556231855302,0.0201443550685762,-0.0342910050450568,0.0214885940622978,0.0372790179485422,0.034298346059436,-0.00813973178302512,0.0360753901449287,-0.0635712058574827,-0.0184544872336562,0.0494370025717655,0.0394711428157459,0.0474450946025438,-0.00380864509957803,0.0619423537697747,0.062903578141193,0.0868446111778136,0.0313544895125739,-0.158151206430631,-0.0504685912252172,0.0486710257744734,-0.0799791387928434,0.0818128282536874,-0.0272874843453465,0.0204797238485533,-0.0843009531512616,0.00772657355957309,0.00775132838564315,0.157382056418563,0.0941584823634331,0.00351250533072293,-0.0529419273081815,0.0659115417712704,-0.0141168316005442,0.0190825942960889,-0.0122814406218901,0.0162008867873639,0.0269878692030178,0.0248229498793697,-0.0700877302411367
"CAU~tas_iasd",-0.0296598369466088,0.116730488410043,-0.0655474168898696,-0.038212254358274,0.0862840090343425,0.0657211798986641,0.0194256751496813,-0.078374113687134,-0.01277222737372,0.0644226320319682,-0.035307755508092,-0.0729373416113592,0.0184467474460724,0.0101790250064657,-0.0172291830433841,-0.0750249597006733,-0.0303417907089836,0.0187332551813679,-0.0163130828914728,-0.0873643602737713,-0.0798964551481696,0.0268947595700761,0.00692421707803282,-0.00772434138053005,0.0407979634801075,0.0171103100315618,-0.0598217070837737,0.0582115908067525,-0.00279807850299765,-0.0113596336963,0.0862950577263763,-0.0117904667000069,-0.000667248500845527,0.0208146314457722,0.0313224770145907,0.0143626039700355,0.00392922949863608,0.0441046355007258,0.0212240313895759,0.0191627318143024,0.0689885999460366,0.0652293139943867,0.11469685313895,-0.0347034868428221,0.0227062998004686,-0.0294763438864873,-0.0196860352547031,-0.0925577269484612,0.0848575270769745,-0.000899918014210585,0.00246243627204451,0.0106749681675427,0.0371909331325047,-0.0220970491007308,-0.00700485880789287,-0.0552039458671141,-0.0175537142214812,0.0377987182593328,-0.0595184297431598,0.00381753383341573,-0.0179367251993572,-0.035969320385862,-0.00994864323317101,0.0457244996345446,0.0513826871002161,-0.0623424693836959,-0.030196415985486,-0.0500793447026104,-0.0659419377629413,0.141577779677882,0.0239348404253841,0.139154767681759,-0.0967760696452069,0.0108820742121627,0.0630072611971703,-0.0248649321943157,-0.0424970509490642,-0.0735898014721735,-0.0155399259460686,0.0495824478371928,0.00253408424972736,0.00910098461761852,-0.041676359037019,-0.0140137805107341,0.0203034046018634,-0.0279660941180247,0.116762273745569,0.0687606844765793
"CNA~tas_iasd",-0.0310423760035085,0.1143767483834,-0.0404013153484754,-0.0220635650769855,-0.0358178239340661,-0.102162643304728,0.0243284456464616,-0.0189671970052858,-0.0887812583760498,0.0235432040014914,-0.0137166136932197,0.0638515623703578,0.0382478301465402,0.0366580500586521,-0.0653994284619602,0.191966876230024,-0.0511463119587144,0.0525937920354915,0.0438465902040805,-0.0365898589794466,-0.0688632321645064,-0.0833405491861812,-0.00207214224497895,-0.019638342441388,-0.0509630850386538,0.00171947829902455,0.0287795630734882,0.0042589847915619,0.0273359701199364,-0.0303267466939088,0.0468339218646147,0.0647112268107187,-0.247192136961053,-0.0549075488547376,0.0642783767924302,-0.0419471795941146,-0.060181127873122,-0.0019374491167011,0.0265859576455174,-0.0551173618077996,-0.172798391926154,-0.044757423012819,0.0117680561078604,0.0549231546840615,-0.0563626579382664,0.00669955051597547,0.0299787513411475,0.00904106034611265,0.00259135826039295,0.0371814173431914,0.0769843064901528,0.0652719471199284,-0.155054418172059,0.0308266394081096,-0.0311959135317235,0.0302662242397358,0.00629954809995508,-0.0482341305331221,-0.0548546906507026,0.0617590256292647,0.103021401575996,-0.077412307383082,-0.00383210554476066,-0.05638354850389,0.135671140203564,-0.0454948317570234,-0.00419955072257494,-0.0526076808104772,-0.0359678301333099,-0.0186952627179173,-0.0504176486108011,-0.128999544723094,-0.0503153524105346,-0.0477173161209298,-0.0239220743628718,0.0302398573452883,0.0754791213566737,0.0343559122395286,-0.00551196323145765,0.104474456433084,-0.12019373121005,0.168421029911138,0.0191282660245297,-0.081349183406521,0.0634359059179088,-0.0506598687857407,0.0189939961901072,0.112241098890915
"EAS~tas_iasd",-0.0167275363405719,0.145968856586163,-0.0402687992485894,0.0105896887708488,-0.0324472160763632,-0.0705238610734149,0.0139369750478299,0.0133387123154956,0.0191651593787052,-0.0297008203787696,0.022549924113262,-0.0197841291326661,0.00545932844096617,0.00681837210648563,-0.000937925531933985,-0.0493405735297903,-0.00189759960124342,0.0251039896537015,0.0348856975586454,0.0897796426338983,0.0347198271629601,0.0610923770003987,-0.0483228832799333,-0.0168897468318444,-0.0317710836370107,0.0243722424622432,0.0451743425592048,0.0205300920914704,-0.015617912437761,-0.0130173982837836,-0.00604752200058232,0.0151810223454372,0.0204654173443934,0.0493476571408588,-0.0157440368354746,0.0285754561165534,-0.0324008744074113,0.00403971827529025,0.0129338397683662,-0.0338574259221483,0.0173997882220694,-0.00593410593111601,-0.0469252866577748,0.0922382675334568,-0.0362786548236169,0.0319061205823225,-0.0313115564097247,0.0493291783624703,0.0222064372634984,-0.016791820879215,-0.0170732581733652,-0.0467120564490994,-0.0140510783856577,0.00831350447788192,-0.0536687026741227,0.0340795462281884,-0.0106946488522278,0.0303734814600565,-0.00795566669785102,0.10224122557864,-0.00217909516052141,0.00113768903653377,-0.0298851025337571,-0.0204037387230141,-0.142221038395835,-0.0144465195606194,0.0964271852109742,0.086471433751532,0.0324961476576186,-0.0385300605630709,-0.000282593610131008,6.78144452903901e-05,0.0733636907150171,0.0316036573142609,-0.104778821180577,0.0440734587154925,-0.0862117467357285,-0.0512121599066556,-0.0636176135736649,-0.00986843932144294,-0.0611057606838527,0.0829248135994097,-0.0624228409673582,-0.148122574128473,-0.045807531899092,0.115360981537603,0.0896208496991204,-0.0149778728891965
"EAU~tas_iasd",-0.0206045126596546,0.133941033868192,-0.0512369671698325,-0.0272726055257368,-0.0018931684005583,0.0861377709846285,-0.00293703682273859,-0.0601083888313754,-0.0584746161084178,0.0686042480667998,-0.0275500952789229,-0.0465003140626621,0.0404436375110816,0.0148962925235072,-0.0209797733618509,-0.019746482884764,-0.0140567254280907,0.00943760956936976,-0.0123667162438476,-0.0798843180113157,-0.0772746624560388,-0.0498704484237503,0.0726965637185043,-0.0271061031655981,0.0162997121363676,0.026012991083958,0.0180182915280387,0.0629774969470061,-0.0359670826252126,0.0324746959556752,0.140601464239695,0.00160560439367418,-0.00926744568346713,0.0335004590318854,0.0126629255804551,0.00602563319641958,0.0169000898028506,0.0378984550233956,0.0306144321976355,0.0124104001991549,-0.015129994095016,-0.0227248994158496,0.0135090391340132,-0.00241817953792138,0.0456573952981423,-0.0244778200841037,0.0018675789601436,0.00610563020633685,0.0216288128110123,-0.0183137134849633,0.000289665944591781,0.0471478323233185,-0.0572404600959558,-0.0918607840154834,0.0504846812083006,-0.0287512300470558,-0.00613225616230063,-0.0286759843275793,-0.0490484805211292,-0.0585364765314688,-0.0424702717637723,-0.0531396500903773,0.0769051097833017,0.0700232904178226,-0.0108943670640842,0.00388342580615231,0.0375635359242258,-0.0745739928281395,-0.0296172643592976,0.068143426878322,-0.0550371505525158,0.0559535490800799,-0.0829871676970717,-0.02327324313924,0.0193248057762491,-0.0660945402986029,0.015773593704892,-0.0961717336058395,-0.0372664588979292,0.0200032800325836,-0.056952614135053,0.0112268190156481,-0.0990546369222716,-0.0492873273610672,0.0041325524393576,0.0142720533450196,-0.0596594712567602,-0.0141755762444604
"ECA~tas_iasd",-0.0118124815663015,0.133104476967619,-0.0758229467914186,0.0170877943345758,0.0140231739765521,-0.0389940425762243,-0.0185583487986863,-0.0208084181618429,0.0891426528502259,-0.0424206629934685,0.0104289842053463,-0.0934213667145623,-0.073197482186723,0.00648332005916773,-0.000571112643968926,-0.0216275030066622,0.0779253142255266,0.019459718444857,0.0925261650516648,-0.0135322796702123,-0.00926714215457905,0.0735240894090186,-0.0581457513088908,-0.00822681037908926,-0.0480492776550773,0.0354967299338763,-0.0736485399536136,-0.0448265869129443,-0.0050010723438549,-0.075518307432072,0.00561582537707336,-0.0690400114529987,-0.0570809583711929,0.0648766228421973,-0.0578571860737826,0.019550179805124,0.0720153387687669,-0.0668453769038564,-0.00425796083855403,0.0119412435735725,0.0554308650365134,-0.0344195655119958,0.0291651539092221,0.0725339246446234,-0.034294033415757,-0.00642060452041784,-0.0130342010391203,0.0541696622792187,-0.00409967557986429,-0.0220379576317907,-0.0803993834685856,0.124070769666663,0.0397348997453747,0.113238418438144,0.00317054465533835,0.016885206404382,0.00315805514906785,0.106973797153718,0.00638321997051528,0.00248854094030766,-0.0403580637521844,0.033716429476927,-0.0390938882283962,-0.0880865178455335,0.00151491679376626,0.0879526330443438,0.0842562094999701,0.0233528891432467,-0.0219024648781528,-0.0126073243681722,-0.062430275640903,-0.0667460096644844,-0.0106113449751075,0.0899398283378429,-0.0745664000462536,0.0685495411951011,-0.0221873009672183,-0.136103153443177,0.0609496619887018,0.02808908146131,0.0247019632546098,0.0536319119239439,0.0248802938796188,-0.150456273851708,0.0156490575678579,0.008656564145855,-0.00904562178528124,-0.00835683510884384
"EEU~tas_iasd",0.00191329199652447,0.083582501304519,-0.0617723945829798,0.00872133020037384,0.0665630461220003,-0.191520292012834,-0.0625189722067816,-0.0734301912452934,-0.101392021610803,-0.0181073330381177,0.00604412385479323,-0.0176673124186752,-0.0230604523359156,0.0587436008981519,-0.0449088237615028,0.0624908363756899,-0.115212798257,-0.0155826673566719,-0.0469419106244973,-0.0293293900095638,0.0284282136275115,0.0426092998112925,-0.0374676722150095,-0.0438103420022197,-0.0261403108199723,0.00134897310108203,0.0722670157793988,0.0028802263812507,0.0269717371679337,-0.130475312599656,0.0330280438073417,0.00119556979128203,0.140593288364402,0.0363863145136657,0.263031539836923,-0.0667643286507786,-0.00971930691679885,-0.0208905894069622,-0.033715522803601,-0.0770069186233967,0.0939862594254207,0.0466751385001224,-0.00835873521544253,0.00734163608886455,-0.0810052680783348,-0.0600340819931571,-0.0089015409283185,0.0343330620448969,0.0594039579927916,-0.0447067456507137,0.164742076540813,0.0589123883042077,0.108744691580949,-0.0364314380361346,-0.0119519135349536,-0.0962240385147053,0.0258896485220074,0.0684150207570072,-0.0181554856024667,-0.154386303952312,0.0209633867231218,0.0964282970288289,-0.0295115561629778,0.125174978975146,-0.0580586047776352,0.0472248429346954,0.0545446538415963,0.13673890585211,0.0308468559923762,0.0538700812651005,0.0161509619053081,-0.0621014713728254,-0.1580389822483,-0.0554800685522733,-0.0344249861445396,0.0302228791045005,-0.104070930034649,0.0221152321308494,-0.0105166706745199,-0.0877354186133904,-0.0898940570624001,-0.0374961316640832,0.00438104074803459,0.132018245299193,0.175174584919502,0.0406618751620735,0.00578525314601717,-0.0632424973464438
"ENA~tas_iasd",-0.0204727500934507,0.128946825871544,-0.0360501782980087,-0.00066986102579192,-0.0608387544519535,-0.107646782657209,0.0283374081631717,0.059327085746676,0.0103102855013215,0.00627066449134498,0.0216492501218973,0.0263172758294602,0.129305937039236,0.0426792589684571,0.0178702772159901,0.0616464164885651,-0.0633613373975154,0.0284224897449184,0.00619780003235303,-0.00237095337334183,-0.0174758205684027,-0.0529282061644516,-0.0198800167519165,0.0351602080107628,0.00860645698312881,-0.0211078150390205,0.0233391864233816,0.00611230964846055,0.0252946589928488,0.0147115689381393,-0.00737024418149859,0.015059226339362,-0.0788718510653868,-0.0175179506105029,-0.0501888277386345,0.00575831600848504,0.01028354526139,-0.00641966266477159,0.0241504329702218,-0.0409535541948494,-0.0587519579634312,-0.0146847956362423,-0.103131800611603,0.077301624929523,0.003475217514311,0.0209420797987976,-0.0537807281076834,-0.0535965072971137,-0.066744917283206,-0.0358631119660763,0.0377258874092666,-0.074246507963828,-0.09201825701818,-0.0113179956891928,-0.0534498987434756,0.0744238073163401,0.0609811041305675,0.00175220049279745,-0.0208782811955287,0.0539904570459348,0.0252011747701513,-0.0843982476225578,0.117318569577363,-0.0222537499910879,0.0711312830692047,0.0312522212992468,-0.0321561987184373,-0.0375232504710698,0.0894034435841783,0.0178356321946154,-0.0723988398217093,0.0113906367304779,0.0460625525855014,0.0512379647696069,0.028433589312035,0.0309331388286402,-0.034015336353661,0.00754519272801091,-0.0171439139302675,-0.0169478675385246,0.0775942931399089,0.0276258416547991,0.103411695664819,0.0918012538599838,0.066726998401537,0.0635512719442784,0.0294747801241468,-0.0299864013471926
"ESAF~tas_iasd",-0.0220657938918614,0.14939289244257,-0.0168557042014532,0.00638092620967814,-0.0224636774833569,0.0556932312892917,-0.00862789075634685,-0.00695073399311884,0.00625066186344515,-0.0301009038235351,0.0203144597679779,0.0138130762129916,0.0593412814130321,0.0193029915075824,0.0124943089825209,-0.00179376243625354,-0.0421343514300087,-0.0034874917623322,0.0179784321329786,-0.0411564139676668,0.00908684459955909,-0.0187590339859248,0.0184705065871377,-0.0034284447192924,0.0638186304666733,0.0210968232350113,0.00377190432278643,0.0507693669304498,-0.0145198508303087,0.0675810628441188,0.0207311160068621,-0.00380513205268736,0.00946962978607543,0.0166641843016174,-0.0105201085083854,-0.0558697180810304,0.0555891124781607,0.026281511526871,0.0266598386152105,0.0439803397416211,-0.0207340966149178,0.0112717391266395,0.0145071793507821,-0.0104344390177009,-0.0196114094122428,-0.0677336110320616,0.0300537664331035,-0.0441288065383563,0.0237607503736523,-0.0136149170917838,0.0512594459984488,-0.0435961413147347,-0.0140452028807494,-0.0145241118409635,-0.0300983331512051,-0.0273963770566442,0.079582464629972,-0.0177846614432108,0.0407656226180318,-0.022992835432702,-0.0155192544943936,0.0209959626309096,0.0184984233696149,0.0333513693198913,-0.0263521941441214,0.0435296191979597,-0.00984214343555933,-0.0674674453352952,-0.0646491530162661,0.00873296422213509,0.0743987573102651,0.0411687048389307,0.103907317481596,0.0223087498604661,0.0698414561665082,-0.0545243272113428,-0.0451322618347353,0.0732051160725304,0.020461307021974,0.106134848893035,-0.0377962579283445,0.025099277518612,-0.0656256220766993,0.11487579978654,0.0333110224629712,0.01234735012049,-0.0301266811614357,-0.0478235305102168
"ESB~tas_iasd",-0.0155504600522228,0.128977191345324,-0.0431762751187187,0.0117010215443889,0.0599210545706161,-0.111180776984365,0.0480906112896194,-0.0287611532206173,0.00917025601832387,-0.0458274170280271,-0.055687975920234,0.0490814253416429,-0.0124984326817155,0.0284576537596543,-0.0242740372700148,0.0696978704027811,-0.0115000251704422,-0.0702920869794993,-0.0350332102206943,0.119088108277251,0.045332311730398,0.00576606808188501,-0.0507266494767329,-0.0378196642593717,0.00560083254183837,-0.00208882950055318,-0.0631376157194021,-0.0337287710879685,-3.51583433929751e-06,-0.0411613889687505,0.00516669437383483,0.015029503887713,0.048169684624549,-0.0104755515963774,-0.0621790730992834,0.0250662081600849,-0.0837583244602391,-0.0215279859522402,0.042098888376561,0.0180663926541367,0.106107064086123,-0.046922801397336,-0.125543490663127,0.0681860335590462,0.106814809684021,0.104880302911025,0.0157236108552412,-0.0246812648788661,0.024518551990071,0.0516506538957296,-0.058795678727159,0.0453768211365027,0.0792932925579414,0.0327350247944027,-0.0355940412474738,-0.053251267318564,-0.076267310752678,-0.0482257965412572,0.0219837500793652,0.0950142989653774,-0.0382595612211342,-0.0866351239038399,0.0429371593787238,0.0257302609670756,0.0273118419498374,-0.0528127555306497,-0.0305114170127737,0.0817711164737461,-0.00766320056256304,0.0578518867270431,0.00899494782970234,0.0162191100089429,0.0725160461102843,0.0150689094475649,-0.0385698689667686,-0.0118520913807137,-0.160699931441233,0.00244373976417586,-0.0589152003223572,0.09561637689617,-0.0132155676468854,0.0294790502922395,0.0263730717172731,0.00641791054109962,0.0275859943330028,-0.0372654944858562,0.0293499515648227,0.0426939627683962
"MDG~tas_iasd",-0.0237856235891813,0.151207861067797,0.00133282695716979,0.015937600308413,-0.00662690487569783,0.00595353277672432,-0.00772842844352314,-0.00492798216989667,0.0249801454485821,-0.0481106387441435,0.0200452507370668,-0.0374068820092646,0.0236225833819315,-0.0045430856191736,0.0233071041661217,-0.0316070750494641,0.00433259540233486,-0.00528250745833887,0.00104019944601447,-0.030636066540957,-0.00628486205264338,0.0670815384308144,0.010579609520713,-0.0234491806813498,0.0336034503066891,0.0675041051989029,0.0114648004649017,0.0525505171496669,-0.0338550768273108,0.0493150045430641,0.0164804280402928,-0.0165857197101604,0.0177077675286933,-0.0364749679572639,-0.00721330525801787,0.0157824997262225,-0.00936038979138418,0.0507576766854801,-0.012071411277252,0.0567750039942518,-0.0114316071790625,-0.0126046052973949,0.0715131939882948,-0.0305303561202043,0.0201322990667907,-0.0834899444097105,0.0124655003820052,0.0195442893640306,-0.00620476789482707,0.0656302851674192,0.00736940020489802,-0.0778091563107475,-0.0655208235855917,-0.0100560072478213,-0.0148340280065607,0.00020449145316494,0.0307798369877299,-0.0532222358158386,-0.0177888585058754,0.0445462784734641,-0.0212716511033416,-0.0309571514900949,0.0130342550471644,-0.0693614275728929,-0.0152009165221371,0.00663235779883959,-0.016682470665738,0.015954594013133,-0.0566453507066214,0.033723782618525,0.0433638742838901,-0.0496913977123498,0.0725591384726121,0.0191712106723984,0.0504254941336565,-0.0458140452537071,0.07643020897615,0.0762306965684518,0.0128904894970313,0.0274871981367991,0.00770541211173959,-0.0266937724814695,0.0641101140007817,0.0153182366583168,0.0512354019381526,-0.040374717404238,-0.0860018618485478,-0.079632400662801
"NAU~tas_iasd",-0.0248404266740295,0.142683059715555,0.0105267703125947,0.0018985929652395,-0.0463335989796874,0.0381154389180091,-0.0562818076297313,0.0472489451744472,-0.000394007866450376,0.0602674647061106,-0.0179467585941929,0.049884072526296,0.0450947668003634,0.0139825408888954,-0.0458187723225142,0.00714236359087316,-0.0303542588145602,0.0246688985029766,-0.0123065289803876,-0.0408681036771585,-0.0331335246744152,0.0203046775149324,-0.00674626061623753,0.020058627315305,0.00963156524710474,0.0603178938710676,0.0528392665875043,0.0373277464316764,0.0166739279460791,0.0527910882098062,0.0429394526556747,-0.0400369490593678,0.0330225725790589,0.0265774310223372,-0.0545309635092763,-0.0385824159450597,0.0288728402251222,-0.0085626211420101,-0.0305182232554603,0.000255137696023095,-0.0389108685924366,-0.00965871401248065,0.00401084860219934,0.00793841869119859,0.0101448308884844,0.015525600016608,-0.00387765182142349,-0.0029207972492844,-0.0230352882517218,-0.0662378521368929,-0.0598189467786986,-0.0387016394352362,-0.0141602418465308,-0.058199488451637,-0.00442343054596346,-0.0136708266096005,0.0315181678773759,-0.0365993330402065,-0.060167126947093,-0.022368882723757,0.0836182218333158,-0.0456217192770831,0.0686342922352476,0.0498162415873278,0.0865062491033914,0.0545189489004736,0.148858741689768,-0.0160086058712776,0.0180681351022572,0.0453896839222408,-0.0539095711018043,-0.00677114154849465,-0.0740212695735698,-0.0626287537248655,0.0639275444318924,0.0549527184123918,0.00651341285819752,-0.00816802900919452,0.0607491884222122,-0.0220782004643691,-0.0669618389509988,0.0119042291244986,0.00170003501129018,0.0179222853643121,0.00214556616038816,0.068055120506715,0.00844315364591876,0.0265296286270526
"NCA~tas_iasd",-0.0128573852412408,0.143977638066909,-0.0620554793508803,0.0130820267860706,-0.0643732907600532,-0.0264357885882853,0.0274503222041553,0.0236894341302191,0.0272702912262275,0.0115373333514929,-0.00569092143467078,-0.00841860143905479,0.0483231527504292,-0.00321032469865869,0.00809060986270642,-0.0252466607264126,-0.00891194468523256,-0.0252572949309416,-0.0451590295102945,0.0642770311785307,-0.0112359004674474,0.0234765671191893,-0.0292267462411709,-0.00598543073041399,0.03952581688691,-0.0103709417624671,0.0324700768076348,0.0246342446671127,-0.0548415852912197,0.00770720931135007,0.0128698087467933,0.00717073144757944,-0.00929307217249094,-0.00849141645566284,0.0636881977065952,0.0519127406040671,-0.0485063719598699,0.00269087648918769,-0.0105892602256808,-0.0098742437598334,-0.0259256817557213,-0.0293181997228316,0.0270542204296074,0.0185613663836847,-0.0352260581263643,-0.00944682951911558,0.0400477690522762,0.00366387410226055,-0.0247918697257701,-0.00428578492328007,0.0403137906389223,-0.0116427981580531,0.038381969524448,-0.0453150287580134,0.0496604581872062,0.0366070166226426,0.0359367840789748,-0.0191906989162313,-0.0237878138390198,-0.0078994625901522,0.00684707386861727,0.0503947181200657,0.0575409314870181,-0.0136105697341411,-0.0332159072397741,-0.0015467929784553,-0.0316104703625305,-0.0156632252675403,0.0321374542652503,0.028373258611104,0.00750960550358252,-0.0338592692639971,-0.0107424633794111,0.0318988288334391,0.00167661411100189,0.0829859187962952,-0.0388487425241032,0.00284811785242616,-0.0618434013738192,-0.0843021883279324,-0.0897589132590095,0.0529899593747747,0.0460531446920324,-0.0339003604685386,0.0287841477227679,0.0354035282701591,-0.0460859674862382,-0.03831710266496
"NEAF~tas_iasd",-0.0149342461003983,0.151275504189337,-0.00957316079095152,0.0236988141925805,0.000253494586109743,0.0350301684737489,-0.00798109625618155,-0.0389622863107301,-0.00276194048243683,-0.0534820189038174,0.0628609944067557,0.0189831957780787,0.00280993807198697,0.0200355450758752,-0.0167467676357605,-0.0374474077211524,0.0210589256155093,0.0059263201859689,0.0374236095707406,0.00204605365350636,-0.0346741168133396,0.0344215100172647,0.0255368277073586,-0.0461718819581605,0.021945540296346,0.00796273634871931,-0.0230111666228787,0.0337144532074186,-0.0280874266910146,0.0427556145878575,0.0498318707848098,0.032190501148919,0.00229990752212531,-0.0239727425400047,-0.0393325500780451,-0.00803223189342922,0.00726092233877068,0.0403674849600729,-0.00112054223600395,0.0555167526915952,0.0115536845473651,-0.0125060970574445,-0.000574529528977015,-0.00931216885339874,-0.00383139936839613,-0.014717500333238,0.0252873544532108,-0.00241539570396964,0.0449866536141767,-0.0179319829501732,0.0217749064267301,-0.0136865184566038,0.0203929319113273,-0.0241935810051799,-0.0333552609633248,-0.0432038466757668,0.0254579712528291,-0.038382128542401,0.0542153864053781,0.00382575067194597,-0.0257009197993909,-0.0154639062891471,0.0405675091113346,0.0312721304594824,-0.0634202634940175,-0.0279801335486192,0.023131061941267,0.0406568717900812,0.0130974277528265,-0.0545752770683728,0.0279176431970388,0.0053939139922041,-0.0424969125577045,0.0407373362121315,0.00605763473096088,-0.0684537984763981,-0.00191395372682235,0.0253748519636716,-0.0669879810958439,-0.0739495110314332,0.0449781500654894,0.0120641152522041,0.0492338423171954,-0.0426802860606948,-0.0138210950404375,-0.00693924045369793,-0.0164097280554613,0.0962490849788684
"NEN~tas_iasd",-0.0125025453399875,0.136275051370122,-0.0345097315710126,0.011012488505569,-0.0659168672166041,-0.0873089366921531,0.0137966092603957,0.040785554304604,0.017227678543822,0.0279819317534978,0.0781558273590181,-0.0452294204450437,0.0732650880267869,-0.0579694951670092,0.0179260275107813,-0.00863427244271231,-0.0439084788527464,-0.039086339371197,-0.065497547693293,-0.0107868445266406,-0.0457897536778587,0.0360648905335185,-0.0274810566364093,-0.011909101199203,-0.0547469471363327,0.0182904402626855,-0.033787641662823,-0.00838540365641787,0.097503689350643,0.00599620586110066,-0.0158314438302563,-0.0488102573037893,0.020073025941064,-0.032210386709925,0.0534904847073525,0.0152515625092466,-0.0104630241333398,-0.044338020065777,-0.0201722865287884,-0.0762768956709964,0.0113129248848521,-0.0333448427716071,-0.0490866256515194,0.00672864736848195,0.0277980521044481,0.00409306972645313,0.0411442653705465,0.0304970807843335,-0.0638863461230454,0.0304890213474137,-0.0123081397593993,-0.0066021555111927,-0.0604279035804619,-0.0185479484147584,-0.0193908258741973,0.0570879459132703,-0.00686841516803687,0.0328219607433469,0.046670643960751,-0.0123128303488636,0.0974468928653093,-0.0383126092904921,-0.0699219869251999,0.0262163668821766,0.0670964012826701,-0.0434570948488013,-0.0138858626651906,-0.0560735028901175,-0.0676290747308636,0.0209710318763808,-0.0207529534006953,-0.0259711229710863,0.0642027692464222,-0.0569572841062725,-0.0118967543199928,-0.0269099925015525,-0.00692787047675419,0.000144363155619994,0.0701868335031687,-0.0233258930520031,-0.0189435645699326,0.0573099212010601,0.0195629789853527,0.117204802207022,0.0543624002437976,-0.0146236485021652,0.00487289495161525,0.171258923036509
"NES~tas_iasd",-0.0329190616930667,0.122785037205996,0.0249744816549023,-0.0375491841576199,0.0374086005433188,0.120211019914087,-0.0530250038803134,-0.01848820720375,0.00497578297233165,-0.016733580542369,0.0277100760339614,-0.0987482345297596,-0.0815058782945368,0.00853947758639489,-0.0491422987749754,0.0370657364053095,-0.0186375206508443,0.0572622810916481,0.0378068139373238,-0.0446330645032664,-0.00328883696554704,0.0171323293080796,0.0151347219322871,0.0496555033918543,-0.00104343147382173,0.0556659749884937,-0.0330795875805064,-0.0122534774112547,0.0456128522207691,0.00998979847869308,0.00147132456047923,-0.0440502891880748,-0.0181483948812628,0.0633287881537703,-0.00430890749763383,0.0162577089430555,0.0238000371019279,-0.0587625823952511,-0.0164209225800653,-0.0175759307652924,-0.020624334841649,0.00555612971166833,0.0221053395437683,-0.0512421661732597,-0.0373317932497222,-0.00839197953688726,0.068502576984566,-0.0262644920290465,0.00633619909608117,0.0340281588653023,0.0066893723573977,0.0374222278729781,0.0429610274807576,-0.0365087126379584,-0.0161586637807415,-0.013311811680113,0.0574194925734531,-0.00379085889164159,-0.00782700904421839,-0.0362366967947611,-0.025144413837489,0.0237471487928914,-0.0580661854642645,-0.0112802694743685,-0.0180681658624729,0.0527573864775476,-0.0779654692635715,0.000425621930429945,0.0062340693083763,0.0171204314572167,0.073475079713913,-0.0455897947208004,0.0501763706607323,0.116705731608809,0.033643919540573,-0.0707306409682005,0.0183830691134221,-0.0639151580496561,-0.0681546737850999,-0.0600420187483403,0.0177278910761518,-0.0122703762253663,0.0899054168323762,-0.0249106179895711,0.0141496660828341,-0.0454365542952115,0.042758478035812,-0.047942896614717
"NEU~tas_iasd",0.0320202842904018,0.0155242422006462,-0.0594750583479261,0.032656109807406,-0.0754823096957007,-0.146252438603612,-0.153696585308571,0.00180381791028873,-0.0629142475402285,-0.0325231510939631,-0.0555075729782556,0.00402614330672618,0.147837998646811,-0.0544976718000874,-0.126937815691541,-0.127550949382103,0.031412246789868,0.129482928532169,-0.0174265807277236,-0.0714956211564388,0.0922845779660953,0.0710450644418366,-0.123002198771808,-0.024304141421382,0.0753767223924797,0.0571826146940585,0.212495098399122,0.126549096640969,0.195893551971317,-0.0945108862416704,-0.0123513149726058,0.084230929508911,-0.0612730266672234,0.032635025693618,-0.0581128552413002,0.043738178562891,0.073147623737853,0.0189065043586036,0.0472575705168605,0.0028284785508005,0.0453931575919396,0.133220767830102,0.0284173311045002,0.0128887065447949,-0.0959140426639985,0.0756742892524075,-0.0532780500738898,0.14114178380065,0.0872313613871561,0.116581048150325,0.0200387181094177,0.000675004290142639,-0.10614474564258,0.041156790955925,0.00543525357798531,-0.164003326820276,-0.0634706544700348,0.0379939832327522,0.05485243389579,0.0721183824299219,-0.113229606884347,0.0736291715200791,0.0536404717965411,0.00572151608932535,0.114344085148419,0.00404160296433057,-0.00960036459512809,0.0261187149684131,-0.0620305961347458,0.0062219606474369,0.089734593371196,0.0972130996050521,-0.0390376451410465,-0.0609682140428828,-0.13461173765234,0.0386394947749281,-0.123964667989551,0.00420875131637561,-0.0899222833399007,0.145437743660172,0.114706008828312,0.0991591790481726,-0.0113309512877354,-0.0435671828499204,-0.0684471248622107,0.0164749689523951,-0.0259943035919422,-0.0203744130539902
"NSA~tas_iasd",-0.0391169361031026,0.102275900689682,0.021056473147087,-0.0529778824649259,0.0246819602004512,0.13405803350912,-0.0524056589433304,-0.0814816453770201,0.0293947040882056,-0.0574580898232992,0.0257078557053802,0.0124514730084608,-0.127743496247435,-0.00816323361074136,-0.0724487478453704,0.0833082227610288,-0.00383619769550983,0.0557362609110398,0.0546215631746574,-0.0665006272205358,-0.0887966695165431,0.0129137012508989,0.0253628556494908,-0.000477678592216445,-0.0421374328224902,0.0913933078985998,-0.0161469619594747,0.02137084781705,0.02280535749243,0.0137605826933498,0.0248601211479221,-0.020888290862751,-0.0339902524460514,0.00546990295553273,-0.0526485255695477,0.00296760642245329,-0.00405836672448024,0.0142547322362059,0.0234291370142573,-0.00686582021548143,0.0295021867065453,0.0235115516275874,0.0230918752885225,-0.0482425581609216,0.0288074670532015,0.0349296960440682,0.0395882341142383,-0.102970475192585,-0.0056998463813113,-0.0233416191094526,-0.0102518131843066,0.00316561668239116,-0.0110271642898475,0.012060113143095,0.0095111735312516,0.0459118526140593,-0.00253207943906369,-0.0362913926632451,0.0484201029683964,-0.0408326768447835,-0.00692315634022157,-0.0147515712304467,-0.0836614790291589,0.0705061490493393,0.0404878821865236,0.0400647207290151,0.0188702483647538,0.0612132169896603,-0.0107453535059967,0.0117057773234874,0.0376087125151539,0.0956229300158412,0.0380598278649527,-0.0383567565211994,-0.0613291651919066,-0.00824703930810127,-0.0428348611985983,-0.0570611237796328,0.00551746727156751,0.0248891832756925,0.00851834454889252,0.0303007022621885,-0.0122395641237781,-0.00721256472875893,-0.135158719309469,-0.00780632923375485,0.0276399145411033,0.0254342701028463
"NWN~tas_iasd",-0.00609361904404124,0.129771482894794,-0.0120433793023936,0.00518065044709161,0.0426440750119597,-0.0163273812277973,-0.040517973122853,-0.0594737479057565,0.0532329770094744,-0.0161425520831749,0.14508127157793,-0.112095956252612,-0.01957519597928,-0.0137272557834328,-0.0301442007614759,0.154787199227101,-0.0518702417153103,-0.0474150051293354,0.0814357742317802,0.0126139029972108,-0.0742450570464634,-0.0301594407821091,-0.059058710595692,-0.0516678801230327,-0.0878630441178342,0.00112789747658482,0.0296243093862975,0.0244129916782499,0.013710597241284,-0.064754853287128,0.0335747230671793,0.0572980415036069,-0.0711700992001464,-0.063961089882298,0.0104271755238214,-0.0513193765296939,-0.177407225777976,0.0568285096222958,0.0630896388660124,-0.0240324519128013,-0.0775626445592702,-0.00219096476007134,0.0123643655031,0.00246002908019764,-0.0471915855878286,-0.0510192263565085,0.0500727433474743,0.0355457997299168,-0.0449679413222991,0.055730119411443,0.00091939766686079,-0.000892659369902619,0.00807866722695545,-0.0769486171460503,-0.0494286141824757,-0.0538142683080832,-0.0668170531006583,0.00812600301727078,0.0309799055398755,-0.0326866793196333,0.0151172686335255,-0.0873040954056538,-0.0782324440781593,-0.0626545212937616,-0.140222603482059,-0.000179967718220955,0.0130773875197218,-0.104944523579061,-0.0795578614925446,0.016930534667264,0.0264368037826217,-0.0666385233357754,0.0145587064131423,0.151518532599348,0.0700229510608551,-0.10580086390136,-0.0822934357460388,0.016500923857555,-0.0517418384245965,-0.00635622672166988,0.143915940273103,0.139094095404859,-0.0721969198857384,0.0420433032824466,0.0100462585149453,-0.0661199454219544,-0.0464643019280958,0.13929566210784
"NWS~tas_iasd",-0.0291822736368372,0.128053086332566,0.0429241240713371,-0.00214622979543865,0.0681439325550469,0.0521702917407441,-0.0616455408467249,-0.0525285876243301,0.0572882632348398,-0.0757336180949378,0.0404443473861369,0.035053506469343,-0.0334113084816628,-0.0238058678011939,0.000356455888886189,0.1164588293008,0.0599270013006404,0.00504236161300591,0.00621177644461491,-0.00924073116208097,-0.0465453911605899,-0.0172689902687182,-0.0106503508378746,-0.023237820399157,0.00681767995053538,0.00898707160032919,0.0293067974164093,0.0221332149300837,-0.0241569139685796,0.0342698285567371,0.0146784832166828,-0.0356686698809863,0.00663654813068354,-0.0348775022025541,-0.0769949470007774,-0.0278808003813277,-0.0105633881054562,0.0050706674654943,0.0294289476141449,0.0213305635108261,0.0387616349315974,0.00131707066249822,0.0245966884211638,-0.0425394556349008,0.0231303675725108,0.000516441292706231,-0.00742187962619297,-0.013879608864931,-0.0170682492931638,-0.0339317167176817,-0.00174094753664856,0.0403780542241062,0.06291263015036,0.00673480175850066,0.0171612836204765,-6.61770090909607e-05,0.0237306807848838,-0.0181077871520777,0.0286912447838032,-0.0278687916556974,0.013546694380587,-0.0184539062579453,-0.0286549350888646,0.0130620998414668,0.0598780303672579,0.0741784691158454,0.029628048340301,0.0261161056922596,0.00489937624107782,-0.0174546210551691,0.0305777416272356,0.0783774873009414,0.033422010699,-0.0694738980707025,-0.0392799365259854,-0.0314129769585224,0.00510228163704405,-0.0330345018440686,0.105282207640019,0.0619605267797741,0.0173414621015944,0.00121767486672118,-0.062721723676806,-0.000563669709556337,-0.0192610298917213,0.041207629989962,0.0140066116803694,0.0869610648066675
"NZ~tas_iasd",-0.011940630841744,0.137092343047548,-0.0206740174815593,0.0305500073214751,-0.105597501162498,-0.00957873249533315,0.0573638861507989,0.028070447444143,-0.0311087396066082,-0.00157426443672164,-0.03243923996117,0.0711080465265189,-0.037518093885973,0.00829510273575229,0.026118806365583,-0.048436219054453,-0.0596857899275352,-0.011344962797332,0.00499066674770876,-0.0281419518595336,-0.0571658117467642,-0.00307633597295244,0.037924427165957,-0.0333310753549241,0.0218651251710679,-0.0118438562573882,-0.0180189768220283,0.0764274495661025,-0.0160177358772994,0.0293002588080024,0.042405790244956,0.0287703103746135,-0.00385635691930661,-0.0279316427304681,0.0127593902167398,-0.0232747339889646,0.0764064843889353,0.0839698498442549,-0.0175434059847144,-0.0211802265103475,-0.033959023270896,-0.0035144227619602,-0.0152958639878496,-0.033396949934501,0.0493085383611076,0.0139632535277297,0.034478307105339,0.0604776178138972,-0.00851342191123803,0.011865497672826,-0.00707979315188314,0.0339737396220906,0.0344061553699075,-0.0789666247293488,0.0349820887415779,-0.0123679325980603,-0.0052247500063542,-0.0462210770106335,0.025680843641036,0.0136593988598664,-0.064306899527504,0.0597549541243858,0.0230123601784842,0.0337838386680986,0.0123812302346615,0.0112634055657844,-0.0713398750721845,-0.0504362917260893,0.00287679046568387,0.0419031903703841,0.128969240871549,-0.0272840926788795,0.0225161236946512,-0.0964608518254818,-0.0555117422934107,-0.00203566828074756,0.0246675225229554,0.0201291181878211,0.0191977828474444,-0.054605195580846,0.0254098175453255,-0.0560858042393833,-0.00212141254540238,-0.0826724646558547,0.0209331781458504,0.00589185165312593,0.00730682748906051,-0.0978182519448208
"RAR~tas_iasd",-0.00978628151160407,0.122749283784202,-0.0248606166093212,-0.00741524969496378,-0.102419369179093,-0.0849340118109379,0.0564015785956444,0.0567666236401726,0.0551344128318087,0.04023772767263,0.0530363012157758,-0.00552333328501448,0.0551489709259018,-0.0933513427932684,0.0471608094460662,0.0970890488074148,-0.0273097946681438,0.00717288250130572,-0.0594489963148966,0.0630521423372557,0.0489720650129708,-0.0559850382840002,-0.0439804220693608,0.0390217121806241,-0.0348547510354018,-0.107983964688838,-0.0189394257568711,-0.0603502716306596,-0.00169751239644006,-0.0409573213100102,-0.0556498136283929,-0.00831045639568366,0.0209582409803027,-0.0319685347294149,0.082741819387842,0.103614310518195,-0.0529899502314048,-0.0973433807661788,0.0366138626483835,-0.0794944663708042,-0.0506800971837845,0.0568133890568547,-0.0294454707105534,-0.0736711132495461,0.00300946045507253,0.0164380319024167,0.0440982374125846,-0.00808846134015916,0.0889488961195877,0.0394906664014065,0.0225919641159211,0.0584721743626325,0.0275647674036159,0.041028666791141,0.0410984911942206,-0.0577418159936699,-0.00858705230938968,0.0722676093447721,-0.012558694757368,0.105529469450029,-0.0393377119092639,-0.00373978829149853,-0.0893115417338559,0.0445621722880529,0.142063452058239,-0.0317982271237282,0.062113336033056,-0.0505935071620818,0.064731771775816,0.01773701523589,0.0213661195368437,0.0180918409036919,-0.110255806486466,-0.101297164525325,0.029166274701306,0.0352227990761781,0.074972223041781,0.0636918951303604,-0.109381562576139,-0.00222078346281667,0.012466267188397,-0.0954125792940449,0.0796604797538473,0.0499068420292518,-0.132163275177615,-0.010520297708081,0.064005114138745,0.00497213401218059
"RFE~tas_iasd",0.00178061067748289,0.128156890251407,-0.055831946900476,0.0339865984599427,-0.00705697489752413,-0.107390839766028,0.0489039110171773,0.0421799110706517,0.0268985935687878,0.00158295499112052,0.0521527282097335,-0.038491070204322,0.0735063783929732,-0.0701023649831047,-0.0499848297062547,0.0521363961130909,-0.0723467471228075,0.0647031091539468,-0.0861663060729637,0.110835867390656,0.0302662426075412,0.0453994522555054,-0.00665507535889009,-0.0585444315418894,-0.0196280003804773,-0.0347379304133124,0.0657740768174802,-0.090160248798962,0.00461587566853632,-0.00115662276886317,-0.00902352551283679,-0.0544820283176805,0.0808792895177315,-0.0880602647208427,0.00625000644280529,0.0913921601093894,-0.0404971839618583,0.0563052026166706,0.0454709594210727,-0.0305515694483122,-0.114200830509354,-0.0214948219034295,0.0415363643922219,-0.04730348291678,0.0421496340206945,0.0373535808733868,0.0389503829850641,-0.0334432019521106,-0.0150458197528398,0.0766331907384183,-0.0396523578540343,-0.0472860785636378,0.141132147180981,0.0361838935427879,0.0126876519906827,0.0637672427661921,0.0626184367049888,0.00728231941066585,0.0271636517401871,-0.0816253560903755,-0.00015610432157334,0.0607611315640512,-0.145022211029646,0.00908848871568764,0.110739801915656,-0.0381896561434855,0.0135770524080012,0.0244409861121937,0.00623696451663852,0.00338243676261661,0.0864119342942148,0.0512271978086737,-0.0456709935148855,0.0690240958282873,0.0283122575219977,0.0905410108344911,0.0401469707718249,0.0459794153764071,0.144328286690192,0.192293825493139,0.0750649275898327,0.0242065422174067,0.0641758885188323,0.0447598696903038,-0.00638006064505342,-0.0254382322031969,0.0248792432479481,-0.0679493627321932
"SAH~tas_iasd",-0.0256261775305569,0.145376432007426,-0.00545121967938151,0.00680966668683105,0.0177487821406201,-0.030796877162263,0.0489116328447413,0.0292202174511385,-0.00735136577732702,0.0107349932026298,0.063053177134871,0.0288910295229095,0.0411282090558651,0.0258726351791619,-0.0255047440687268,-0.0859626975799932,0.0452507391055603,-0.00108357655434501,-0.0409695197108793,0.0467153953431841,-0.00517782212399285,0.0417240555292433,-0.0737537200785769,-0.000539767518267678,0.0127206129114421,0.000898835505490443,-0.0488023818187031,0.0469957938590915,-0.028483753525915,0.0386123119276061,-0.00624019553889346,0.00241495637910121,0.0455177862914566,0.022000541047251,0.00603638038537095,0.0215975460412217,0.0177059556513855,-0.00876638522536111,-0.0440784690958282,0.0200132702121218,0.00268550732478726,0.0435049111966944,-0.0143934999764407,0.0498940207537826,0.0237463999837636,0.0249809905843799,-0.032902086674692,0.0329938192282571,0.0125308050811858,0.0109076361845426,-0.00415133114894312,0.0687086585487596,0.0212045502966531,-0.0251247589022499,0.0119873053281193,0.0911900724420392,-0.0844639460116377,0.0239161100169614,-0.0692849886732873,0.0329512748809808,0.0564819793965918,-0.00753649678750414,-0.0181246749738625,0.0718046520248754,-0.0503013504540864,0.0705893687163639,-0.0439917687765891,0.0305010665325565,0.0707245987986279,-0.0374874590222409,0.00575489174948382,-0.00826541881130783,-0.0754696764679668,-0.0598377474918269,-0.0105979540882778,0.0244374982860396,0.000443206221951441,0.0641616330963712,0.0350980952326739,-0.0463621114209884,0.0441978515462881,0.0167040261525324,-0.137451158566444,-0.0613793822678489,-0.0316566924703526,-0.0217089124312542,-0.0323162632389309,-0.0140590911108516
"SAM~tas_iasd",-0.0397266946202135,0.104960447590447,0.00599618234323782,-0.0497901457093129,0.0245952147792276,0.124960099823748,-0.0412270586632515,-0.0711522998072518,0.0639458550638247,-0.00876106319453857,0.0217062669701583,-0.0883212974357006,-0.0760294883992101,-0.00787649319310099,-0.0832650780508574,0.0688042167223426,-0.0780060655828012,0.085534544652282,0.0833181071265794,-0.0862980976630705,-0.0411766066156738,0.0649486361200855,0.0247332345817514,0.0499516478158504,-0.0172436150357057,0.0845356929743561,0.0115887738057391,0.0086318710431657,0.104197316581168,-0.00714325759731965,0.0236986627421062,-0.093628918373234,-0.00651999817499399,0.0651028453253718,-0.0158226477285479,-0.033055986771238,-0.00366291248468295,-0.0686988447365054,0.00170599403846186,0.040798153229272,0.0323917363151866,0.0187542322589019,0.0457482387353554,-0.06262593963519,0.0140949686039528,0.0112037442569744,-0.023698708762899,-0.120029812058343,0.000568685635090202,-0.00470337351432292,-0.0395283535142423,-0.00251432309858912,0.00212703296484323,0.0589952346111554,0.0164729728776479,0.0879834583989567,0.0176195431833421,0.00882924183097383,-0.0419881696449202,-0.0254821006307216,0.0363254983351589,-0.0126960536406851,-0.0501556007539654,-0.00547574129518648,0.0316616268038223,0.0068266410791256,-0.00911585999703332,0.02674678182973,-0.0408414470217161,-0.0411774009571247,0.126654322901956,0.046277901779505,0.0455461469450341,0.0368838911127169,-0.0449968053961753,0.0306272592816521,-0.0351205513813621,-0.0250825466656328,0.0322504230467874,-0.00131298746232659,-0.0117888556145325,0.0924110882399507,-0.0129313384474605,0.00858134335453938,-0.0983465911062846,-0.013505841497455,0.0125419669097773,-0.079886617930516
"SAS~tas_iasd",-0.0215617899632917,0.151634451265675,-0.0138979731377699,0.00843268490996036,0.0081076554885683,0.0309070406771388,0.0235663650928611,-0.00767849073568785,0.00804912867451374,-0.00601325725725938,0.0638849686807876,0.0139250075057026,-0.00345719685636144,-0.0187307584237359,0.00422493739061985,-0.0169348280518374,0.0431566128540577,-0.00128861414847613,-0.0213053197697656,0.0144978678324974,-0.0101657297271146,0.0282642034231946,0.0290348023179777,-0.00751090506504031,0.05099129005415,0.0322478956646705,-0.0488276180736851,0.0193808251966001,0.00391050971046895,-0.00195417939884733,0.0464383129032997,0.0345521040635449,0.000158290943910175,0.0210361411437356,-0.026907703732982,0.0116361340238387,-0.0363595572643352,-0.0559945388429733,-0.0505025722278457,-0.0219664685009912,-0.00154495168439095,0.0445136272168474,0.0194365965000806,0.0110191120247199,0.00805168969021655,0.00477045617109386,0.0255071507484763,-0.0352904980476918,-0.000193709551718173,-0.0159508132765951,-0.0168245257402388,0.0570761589138327,0.0472393542040009,-0.0304992117947964,-0.0276378781408043,-0.0689469266958021,0.0450310510651742,-0.0148266172657814,-0.0864848703211996,0.00983306891625943,-0.00830659554187742,-0.0329371707848407,0.0215861271289164,0.0231747525485959,-0.0666207122864352,-0.0276582404749246,-0.0142235825248406,-0.0451400429832365,-0.0413440970097724,0.0710257428159445,0.0261383808785882,0.0596195819073174,0.00960527797917527,-0.0680294270744374,0.0266897009830998,-0.014049739045765,-0.0524059104860747,-0.00593012826949366,-0.00679728325760722,0.0452735807815079,-0.00715612461079825,0.00114071784900483,0.00981447977722991,-0.00161660190178934,-0.0798908452052525,0.0555954188119827,0.0539027919582227,0.018192135240832
"SAU~tas_iasd",-0.0216109633004232,0.142475053603068,-0.0287734249338764,0.0132058946868121,-0.0788199055612028,-0.0355288424614772,0.0522847994239871,0.012899985436795,0.0243509905290033,-0.0111372437017457,0.0142738058411757,0.0168819099692209,0.0544495830804146,0.000517668279557341,0.0158851101092946,-0.0317968708641921,-0.0183949269379844,-0.032692642433107,0.0121526504010519,-0.0282209742026348,-0.0148784561267703,0.00871347546903004,0.0221591912382155,-0.00869902171544026,-0.01738031603196,-0.0264582587172971,-0.0406084582766585,0.0403094282150986,-0.0276675683716466,0.0476160612180587,-0.0144960706546835,0.019214531346299,0.0165696618640083,-0.0197642513010392,0.00733167904313362,-0.0157845701664823,0.0226108402235759,0.0390975717805139,0.00464601894391597,-0.00534448965282158,0.0231658669527693,0.00220188429700708,-0.0595020759412167,-0.0266258241145702,0.0026925790629362,-0.0221558730425895,-0.0582722704545476,0.0438495802828435,0.00295647634839321,-0.0155583561288973,-0.0935693359095504,-0.0343828803968368,8.49787066821293e-05,-0.0125507756196746,-0.0669094562292844,0.0440683622712987,-0.114084829345876,-0.0736905238903843,0.0629271762863987,0.00846459712733987,0.0275285556506221,-0.0564461631423324,0.049088469075038,-0.0401438558422958,-0.00277872110062831,-0.0767298672980392,-0.00533599936969845,-0.013407495012673,-0.00408055473043491,0.0239039290351644,0.090190779469632,-0.121058038940453,-0.0354484745789761,0.0905990190355018,0.140257370253954,0.0191266787041499,0.134044885224456,0.00193157652158142,-0.00260477126500227,0.0429880957016138,0.0189491530260361,0.0378259453085268,0.0926538781903919,0.0786732627419849,0.040235779376069,-0.0608302962709454,-0.0413774363981387,0.138682146926471
"SCA~tas_iasd",-0.0213432582277311,0.147205417896791,0.0256704668578249,0.0023034639381897,0.0316936020107053,0.0403479283222614,-0.0183145513175168,-0.0403941327294426,0.0309861995161026,-0.0397297354214859,0.0835957327297455,-0.0244655753058463,-0.00326878007472226,0.0157583047720642,0.0226339593706412,-0.0213016221483752,0.0199360329578127,0.00213886781366586,0.00859685385552969,0.0106557193595174,-0.015505159713592,0.0127695723532429,0.0368898380327666,-0.00899529517496692,0.0157831250039895,0.000973653156436655,0.00207438403907216,0.012741376664205,-0.0273014638834733,0.00796508575320932,0.0301044347605896,-0.0050915752385284,0.0076544930271329,-0.013023349226125,-0.00977172177517597,0.00271210465715938,0.00907030339936308,0.0125471446192859,-0.00467120180068304,0.0314232283218676,0.0163743886510716,0.0133699981428858,0.0387924244919438,-0.0283749888152489,0.00276550927232285,0.0274216684053385,-0.00216075762497816,-0.00950596587582225,-0.00631636768332268,-0.0408237597316323,-0.0157977618599059,0.00434528261440495,0.000761517033606624,0.0167020946299514,0.0563313703558143,-0.00454560469855883,0.031568690981581,-0.00316295285786684,0.0348546015033014,-0.00706409762164032,0.0148359161537838,-0.00207602626865959,-0.0143477219251395,-0.00148640656727568,0.0172710729476665,-0.0134210706238117,0.0156171931024498,-0.0239734435396013,0.0277985092877792,-0.0432603991730911,-0.0519343727125594,0.0322777166798221,-0.0095311618707618,-0.0277173630009506,-0.0228967994875958,-0.0249349926561541,-0.0393239367178504,0.0292644618763004,0.0502167903176744,0.0248608340363249,-0.0157953329252975,-0.028068032856287,-0.0147748481117526,0.0592569195636489,-0.0581112226681931,-0.0190266661814672,0.0454733281395197,0.023193736551109
"SEAF~tas_iasd",-0.0224979560803937,0.149694900741074,-0.00991108259935736,0.00455801480638904,0.0270871810342422,0.0146322843106908,-0.00113327349617142,-0.0450530582591952,-0.000263265055995831,-0.0538316458919418,0.0488602297114575,0.0374910641456607,0.0158693901516965,0.00982132598253836,-0.0120900063745685,-0.0321681544530284,0.0159565657556824,0.00353510740290281,-0.0189544581056128,0.00533890156349773,-0.0382144225747805,0.0377408531170592,0.0267966355640139,-0.0240813300533178,0.0256262660469922,0.0190124941789462,0.0166527297552653,0.0382581741589413,-0.0495380000594228,0.0571244749629996,0.0281348167063906,0.0225493453184502,0.00988409488178099,-0.023346822526514,-0.0430813817524926,-0.00826520596208181,-0.0232547636325704,0.0539136326477664,0.0195887643121227,0.087563872805682,0.0160771323163151,0.0284177357770397,0.0102093262558421,-0.0230129375412756,0.00268848430676508,-0.0592102807999616,0.00591087950784532,-0.0266311895379034,-0.00491616409910369,0.0110068379170475,0.007188847298414,-0.0476589612601436,0.00297689419013438,-0.0104220734923706,-0.0207036597978306,-0.0181591226546173,0.0326329589443089,-0.0339430411528255,0.0115410349035434,0.0238875485561914,-0.000936697319147857,-0.045746148027177,0.0501178708839757,0.0159151361021863,-0.0167421530287665,-0.0491033289118849,0.0010960730213672,0.0297048235240072,-0.0134704615299168,-0.0245666614139822,0.060794164187165,-0.00167561766088526,-0.0299784676217299,0.0177772007204918,0.0736819054788046,-0.031053553392751,0.0468285365097079,0.034353477767778,-0.00679492959906892,-0.0245309762452506,0.0223148481062014,0.0109229448438601,0.0374530668027375,0.0162051390892036,-0.0149277010634987,-0.0154699705627379,-0.0195145210134858,-0.00546163332612794
"SES~tas_iasd",-0.0178169645366518,0.13708896736338,-0.0543517151081032,0.0301806542700852,-0.0869226002775603,-0.00706785329232442,0.0374279688896842,0.00226649763206515,0.0342994461178896,0.0556450918847821,-0.0152359632319782,0.0348882700815247,0.0316573251304932,0.00878810834464178,0.0375374362506467,0.0246306190031347,0.00801625764472614,0.0125400403774795,0.0529281919388874,-0.0078096863585162,-0.0458467739261069,0.0137808930064267,0.0235155739654609,-0.0373534254965638,-0.00252810935629244,0.0536736159462328,0.0151274899289861,0.039635216586749,0.0229878100402016,0.0131478729849366,0.0264111963589292,0.0356224044348585,0.0346273554881426,0.0367124992529914,0.0219525038983603,-0.112546899313341,0.0318644368949394,0.0535759650099598,-0.0290922868165185,0.0790746059324719,-0.0122305097738814,0.0153409418646859,-0.0785945549118656,-0.0544789308981118,0.0292860213466176,0.0211567490314668,-0.0257916842847751,0.0600989774608637,-0.0423190706452106,-0.100556893832452,0.0242401382430334,-0.0354252284160964,-0.0612758022930891,-0.0395070216960017,0.0967082552477362,0.0051505779052823,0.0097373548051726,0.00221258355335192,-0.0998077376408161,-0.0634656136052979,-0.0428561100859931,-0.0200621298283477,0.0630999427314096,0.0501837502557194,0.0334438019964979,-0.0908224277069382,-0.0286769134697883,0.0433318496434868,-0.0397940970644216,0.109214277090875,0.00474000299502774,0.0790384704568204,0.00989629815886021,0.138062841453824,-0.0313307675494227,-0.0410591747500411,-0.0432269771722813,-0.104136849274931,-0.0427419381030405,0.00101685878865825,-0.0702616359571582,-0.0240371689219632,0.0379668121671615,0.120796421475117,-0.0208644937713877,-0.0473092130430302,-0.000495956666110297,0.0182631171138365
"SSA~tas_iasd",-0.0115760950413583,0.142736467572841,-0.0333628672420886,0.0316402451545884,-0.0451273928442666,-0.0346917271849945,-0.0595598225541874,0.0260082139039149,0.0145921640183975,-0.0843926572717891,0.00958179545872391,0.0385879820726366,0.0338434167865427,-0.0310952286939929,0.0626102025916149,-0.00687883001331313,-0.00825221297441169,-0.0216987225384512,-0.00860553972888914,-0.0859801187728653,0.0325530050982869,0.0018601180031334,0.0210354628998123,0.00796838729789056,0.0312983812714548,0.00920925149381378,0.0151672742797264,0.0413863785301373,0.00224291028235895,0.0649513303297263,-0.0334233401767534,-0.0335212650482143,-0.0267192699774455,0.00926196731045013,-0.0735600759298414,-0.0727474247552831,0.0863977468361309,0.0225150453540048,0.022892289433246,0.0558285667015632,0.0223059525087204,0.00664622798836853,-0.0309918791269986,-0.019981870952657,-0.0319080099275112,-0.00963424257684358,0.0380632591297691,0.0366975352501422,-0.0224665954381652,-0.0485418019175603,-0.0181585547636047,-0.0039777876166,0.111807667368144,0.0503557190795323,-0.0333583213015102,-0.106070984449287,0.0522867281111135,0.0042189026787147,0.0673051751499869,-0.0495558529569844,0.0432011981262587,-0.0618076992757405,-0.0611543790126199,-0.0110475336034065,0.0469268720511003,-0.0518805599513023,0.104807315855422,0.0408868870446869,0.0353027256441586,0.0108681757189817,-0.0451169637462745,-0.0817678680115886,-0.000393055576587647,0.103374729893795,0.0091373274915814,0.0600164069251123,0.00355154024880929,0.129573780827714,-0.0260552115367376,-0.0412949043757669,-0.0949770864203664,-0.0160912820146663,0.101477724208777,-0.0320567626120613,0.0381302487407532,0.119936840367228,0.0374182033663331,-0.104029055285961
"SWS~tas_iasd",-0.0247564880208476,0.142718409199905,0.0125456982914252,0.00910388044588814,0.0134606961668704,-0.0419087068614534,0.047346458660138,-0.0437441232569297,0.00348023082364909,-0.00841377747311842,0.0584432709481328,0.0542765481050606,0.0478187112028758,-0.00705038317764945,0.0918828382217767,-0.0568303809301494,0.0690749049845677,0.00110743105155774,-0.0025469056171684,0.0144540383142266,0.0431642343093814,0.0553497110395481,0.0363359492574294,-0.0469597455657504,0.00298433479872233,-0.0356820856548717,0.0348573389017742,0.0129226197679012,0.00101083567239784,-0.00966231759275244,0.0485903471168204,0.0342079895931497,0.052118814680524,-0.0100380378723853,-0.0314921603272559,-0.0163364617754208,0.0107129062905223,-0.0072883757747023,0.0360499984766421,0.0716778100498648,0.000827306816150203,-0.0258101248160065,-0.00665625570706334,-0.0577953511034047,0.00988025047117685,-0.0155451146331952,-0.0178537110660425,0.0837393212787779,-0.0555138870441206,0.040347837972063,-0.0559491346626079,0.0484202281465201,0.0489834138905737,0.0828311352665914,0.035836842753669,-0.026798149685159,-0.017360876283258,-0.0109456546018586,-0.0103805147945638,0.0132685060534462,0.0933683065626002,-0.00610372081593389,0.0188917795962057,-0.0105825573533794,0.0325250341848721,-0.0844363994869463,0.0311562156559442,0.0283441105905357,0.0114871546589003,0.0512655553184682,-0.0288646101473655,0.0655370712973703,0.0215458085897192,-0.140270676678015,-0.0604617882079183,-0.101689976930272,0.0374444775198863,0.0657430245613639,-0.00419347489411182,-0.000693834048352688,0.0497731226975614,-0.103430283710953,-0.0794186773128206,-0.0400306719989876,0.0105691160285633,-0.0411889457868325,-0.0510228433584193,0.0960330085146759
"TIB~tas_iasd",-0.013202407566526,0.137329735040705,-0.0733468575776776,0.00445317792214585,-0.0189165424774915,0.0130813895758882,0.00837589623339663,-0.00665366360360192,0.0791317445216132,0.0726078740452112,0.0413423899260606,-0.0510434231805517,-0.0197689627295872,-0.0553439928975456,0.0394400895777012,0.0326400368347978,0.0388953112665057,0.0321887022137105,0.0667482488952174,0.0177090007932189,-0.0459146056585931,0.0399455459101207,-0.0637618034323066,0.0241528160504498,-0.0630643512670842,0.0466204850105262,-0.0550515838411425,-0.0327614189698978,0.0647701817278569,-0.0284069546702603,-0.0305742475346749,-0.00291734238398224,0.0604546053574387,0.0740440604886008,-0.0180009276809333,0.011148524664514,-0.0436251886255364,-0.108966618506328,0.0210757799236697,-0.0712086344403463,0.022933909659127,0.0593323987206161,0.0461050719556162,0.00445441113650529,-0.00374572144438385,-0.0434961975104338,0.055938988928099,-0.0513921320737847,-0.0294068180340463,-0.0624783878766445,-0.0362986911818373,0.0993662482835673,-0.0669017353870547,0.00916963343123251,0.0141241715258216,0.0697875083599064,0.00203404521822989,0.107887948603328,-0.110859512113156,-0.101649438789797,-0.0148751727299336,-0.014296801012306,0.0583398283614369,0.111878161435778,-0.0375899155843333,-0.0453763847370066,-0.112919102176347,-0.00940893375350611,-0.00566644220294395,0.0393321956370696,0.0151403194845832,0.0704726586380073,0.0424965255921129,-0.0636156208959078,0.0533905473254785,0.0899198847691542,0.0732048177477571,-0.0902889472665133,0.0104949800325888,0.0446609291427493,0.0328512706013697,-0.110064589512323,0.0457063686984814,0.00694491400703578,0.0091876535654339,0.0143341395170719,0.0468286688146163,-0.0777452696228722
"WAF~tas_iasd",-0.0188612094602082,0.151528374200834,0.017290828666269,0.0235039615654436,-0.00501427515047168,0.0337066008701073,-0.00251263699479779,-0.0103348818132005,-0.00667297458897319,-0.00406627405662202,0.0682834406431288,0.0402929176524607,0.0244642497038245,-0.0132533555906625,-0.0194077612178493,-0.01749714132731,0.0576475877071798,0.0235205105944067,0.00828100169781203,-0.0085215992966644,0.00500247704511663,0.0116386243823499,0.0368962752897538,-0.0304419495695757,0.0135805078393788,0.0264405785383254,-0.0228677973648689,0.0324291859573087,0.00144840192834039,0.0104346314565764,0.00253442535252629,0.0309209577982651,-0.00333236020165533,-0.0218406883331464,-0.0228482205587161,-0.0211440805237155,-0.0335323263464313,0.0211627936931421,-0.00551823508807029,0.0068435847387841,0.00971066083133479,0.00652234161044831,-0.0310138880346788,0.00111813299686629,0.0305965908193733,0.000607511094373267,-0.00963148450347226,-0.000157069328231654,0.0082634990805831,0.00876057360917406,-0.0362475946944954,-0.00325472704915021,-0.0164558983143725,-0.00287170783064009,-0.0557281267293901,-0.0614020771312603,-0.00216731319247814,-0.0362655735037105,-0.0126978277130265,0.00957976233544558,0.0126984840730378,0.00625437238432875,0.0140191442249181,0.0351060331922596,-0.00186620272897461,0.0261220714008568,0.0110350546340199,0.0189519886457825,0.0136604400976818,-0.00489452100052294,0.00449568711776839,-0.0246715390634044,-0.0359986087798797,0.0112978893510259,0.0353540611263329,0.022358351740012,0.0352595058286128,0.0535370856781387,-0.027082858493235,-0.0794236005170032,0.00520313110463379,0.0260861245571648,0.0730091232749937,-0.0500903825650333,0.0343109364795172,-0.0442384129162851,0.0386745020387367,-0.00372010344955118
"WCA~tas_iasd",-0.0105487610232346,0.138675469099945,-0.0779441539678766,0.00657959240958844,-0.0548658605975299,-0.0404999401420967,0.0174863979743624,0.0264275330878321,0.0260031910658561,0.0245503950570172,-0.00158501173504619,-0.0434106022239534,-0.021239968199246,0.0104633713907831,-0.00272692894791249,-0.0437101597842255,0.0501860542123062,0.00154223050886565,-0.0403812209066868,-0.0652879629349339,-0.00412516089259736,0.0449653659676146,-0.0151351229229255,0.033455654195153,0.00190621971891789,0.00997320239946196,-0.0976280799170456,-0.0509992088369926,-0.0283951776573958,0.000993712655449109,-0.0299211230437257,-0.105594399999656,-0.0734290335303581,0.0363542261766501,0.00720149531658905,0.00560673578972203,0.0915980282922747,-0.0667337503860385,-0.0749450737818759,0.0186758405905367,0.0561427579904268,0.0485300968095514,0.0217758324027988,0.113738461736238,-0.00436326105896408,-0.0153481689232961,0.0269155785925426,-0.034197980057932,-0.0900634219539302,-0.0146148128582946,0.00617741880103718,-0.0450522609097843,-0.032551317140728,0.0111261433678164,0.0360443589904689,0.0563145664750044,-0.058420924478421,0.0286024000798418,-0.0239012347576454,-0.0723380787920746,-0.0302702239598574,-0.0317373806087022,-0.0320085557859187,-0.0551930777782168,0.0570840763237435,0.186757829776797,-0.0295254732999431,-0.0313676632653016,-0.0192522132118192,-0.0792046809711007,-0.112362408700807,-0.073992337809717,-0.0105948532566675,0.0146001249490547,-0.123894184357132,0.0876563449657576,-0.0520787295477418,-0.0888004449458769,0.00146671125474179,0.0506233826970175,0.117815501712353,0.00954090713768898,-0.0367785971176616,0.0598125606596857,-0.0521445276989242,0.0583438929774371,0.0789003676624112,-0.0264515051189069
"WCE~tas_iasd",0.00256895465944588,0.0731669472020273,-0.0788593384947335,-0.00505750407260471,0.0084178157220777,-0.179244881671743,-0.0684450048592735,-0.0330684529635753,-0.14243599620569,-0.038240648983227,0.00180310391501834,-0.0725294934697104,0.0675395280232572,0.0599277591994249,-0.0553995522150758,0.0579586711070252,-0.0562066854938475,0.0199075803113114,0.158351413234078,0.0192777885037331,0.11303943938614,-0.0152407566760915,-0.0042221686938149,-0.0471110772492057,0.0935228397472188,0.192645105829822,0.156581986796067,0.0967546533323424,0.0515950170238231,-0.132893243802144,-0.0221855120759988,0.0797054572059857,0.00183232625149323,-0.0647056586860969,0.0799712221541369,0.0509465458620675,0.0453770521708432,0.0385169406637379,0.0297825525569699,0.00938324299608204,0.0226740444126974,-0.0348951469846337,-0.0639822031578003,-0.168611841436024,-0.0565426994677191,-0.0121296575801711,0.00630591001758075,0.0563437454586933,-0.00693908655113422,-0.0350158836794855,0.00916540503489974,-0.104061396474659,-0.054329188308026,0.285548164970777,0.0164784629587383,0.162016697651894,-0.0889464176703502,0.07778547924198,-0.0568292477795113,-0.0551575362904975,-0.106359988156535,0.0499934265543734,-0.00413691515534927,-0.0269432878235645,-0.0537730812462116,-0.00619326127040158,-0.0812494486637642,0.0434643656730006,0.0322294692492175,-0.130429755707786,-0.0496859315534946,0.0210269903522624,-0.00873638732274614,-0.0336556319972391,0.0842488288921657,-0.0539450554059522,-0.00214859570633879,-0.0246397167350143,0.00890547159880865,-0.0695123056157715,0.0254114114001393,-0.0116101532428212,0.0349472185532832,0.0447430330538666,0.0742120171516747,-0.0926993612817996,0.0191202142294538,-0.086303784801256
"WNA~tas_iasd",-0.0177050504816819,0.131136855280636,-0.0433354525371657,-0.00085376676991909,-0.0168194385674207,-0.0950409062407769,0.00637435532173314,-0.0525792944279385,0.0276210682337014,-0.0329790021699976,0.0530676553998336,0.0586341187732147,0.0214062606778589,-0.0173550948764986,-0.0524705564924787,0.180746176886042,0.0482524979886367,-0.0266672807438647,-0.0247360069178966,0.00365507714381408,-0.0104887260798239,-0.027348812269288,0.0172754953081821,-0.0369793319566875,0.014447588772959,0.00516166399400972,-0.0277222463701374,-0.0881667362169285,0.0179552310394932,-0.0281568682301707,0.0429004093995204,-0.0210803898863097,-0.0769472804214462,-0.0661490110786798,0.0229079451153533,0.00593601548281145,-0.103029229714366,0.0560024914242206,0.0260319511222794,-0.100316005780218,0.00885511550463815,-9.38201662805025e-05,-0.0272355174135588,0.062352712095851,-0.0130316517715383,0.0206559362042483,-0.0320772327370767,-0.0646494846083288,0.080529460848593,0.0947736390371282,0.048546258092826,0.101019564377522,-0.150247610340318,0.101846574174674,-0.0345360874502645,0.0171447288612401,0.0143326868094838,0.0454679571336251,0.0162156987224954,-0.0125430296744439,-0.0518055639894528,0.0939909965445401,-0.0193412806381296,0.0637027873668203,-0.0626343340305453,-0.154610514263618,0.111432421021914,0.0734106567688412,-0.0301480810103591,-0.106216140177881,-0.104246093032574,0.109534069770223,0.120932849475369,0.0927163010989013,-0.0340833707481959,-0.093652001991098,-0.0176948790808981,-0.00432587017303697,-0.0505207742303079,-0.0444252846688358,-0.0446503426152851,-0.0629849830800846,0.0521454753412125,-0.0520994578923523,-0.0269300857153382,0.0410355298789328,-0.0658678406990723,0.0616438322638583
"WSAF~tas_iasd",-0.0210800911175357,0.152725934376018,-0.000897495681333709,0.00607534743261171,-0.0351641572466034,0.0172219274675838,0.0124205005957906,-0.00798930026809368,0.00902320010769464,0.0120183996568927,0.037973871452546,-0.00439574800496704,0.0499761586642299,0.00688086990704025,0.0238467647396565,-0.0215975780261671,-0.0306035019106414,-0.018883369669317,-0.00973743954693774,-0.00824679043479252,0.0125073043525385,0.0100515209133942,0.0320693933410236,0.0111138183734037,0.0367677257184481,-0.0364363925026892,0.0237485142676436,0.0276909874311579,-0.013004039703572,0.0350676045106878,0.0166359990631786,0.00264943450199572,-0.00108189021405298,0.00896006687062702,0.00106243946652405,-0.0110826417265682,0.0245590616245495,-0.0099963257162681,0.0179173425493698,0.0356490583866251,-0.0409765563188724,-0.0153364977183123,-0.0104012447606406,0.00456004455085388,-0.0253132843674718,-0.0321836380465448,-0.0320170572894096,-0.0068077498576463,-0.00710729807430667,-0.00358217204620836,-0.0102461222678555,-0.0277126753129311,0.0217825859838252,-0.00443369704157566,-0.00553526592631669,-0.0113065311522328,0.0157786060959758,0.0274700285858304,0.0255670546188519,-0.0209960733229412,0.0014467776301207,0.0165026824703085,-0.000971590492413457,0.0482595064082106,-0.0102283146534212,-0.0205359729752885,-0.0492893506052957,-0.075025984271723,0.0192194689413932,-0.0351329466202838,0.0589867992222401,0.0178936593876808,0.0463342675410519,0.0364074174191768,0.0067809314849822,0.0246395334796302,0.0613732763958359,-0.0215465659964268,0.0262173476557912,0.00143661550061028,-0.0624163920789287,-0.0184500593888225,-0.0503906100066598,0.0248052229507011,0.00837983002034396,-0.0214767156657467,-0.0060545536970925,-0.0765030772530568
"WSB~tas_iasd",-0.0144944839336661,0.102645808510491,-0.0419336524220044,0.000585379543081733,0.103752028137285,-0.144629175804397,-0.0240930616899031,-0.0865861690462243,-0.0696790349892051,-0.0711223030210916,-0.0287944076244119,0.0165997636018799,-0.0512740225384726,0.0136426429048681,-0.0088124434146735,0.112792125639565,-0.0556740899428315,-0.05804302339513,-0.0392541685984715,0.0998808616363362,0.0345906201357092,0.00442404409963883,-0.0117862700803718,-0.0405239532744963,0.000352985564512359,0.0146088782536814,-0.0526197334445385,-0.0287790003286486,0.0513281366061261,-0.0358243907702595,0.028343353249751,-0.0750734177427354,-0.0319488450653613,0.0308970647331465,0.0587585317073496,-0.0335300713411063,0.0129603722291163,-0.0804988087782714,-0.0235889500039493,0.0118487387531481,0.137152032258479,-0.0494913878607553,-0.119531107917546,0.0285452237159083,0.00699048736233879,-0.0459821275950509,-0.0104220505471606,0.0275746415911262,-0.107367917072581,-0.0796887736270345,-0.0193374049420514,0.0466109211266927,0.0345514754483974,-0.0465226030886334,0.00567611661511746,-0.0442207322591227,-0.0634921914979325,-0.144422234297443,-0.0404746521574801,-0.0217507415595518,-0.0468382803064905,0.0259277673770706,-0.0258801209242292,-0.101041923924416,0.0448446427837582,-0.0589394530983241,0.13346989769755,-0.0146740920581245,0.0980944812325358,-0.0356865234010576,0.0469203304198212,-0.126201786341277,-0.115978683925929,-0.0248465682611039,-0.0171509569293921,0.00830692719224677,-0.0239816605200242,-0.139242302192416,0.101501345631666,-0.0131461834736364,0.0572703030124447,-0.0774005183346231,-0.0102061278894906,-0.0274070219656383,-0.120124000333168,-0.128643474413991,-0.00343647528621512,0.037943147230819
"CAR~tas_iasd",-0.023529342091092,0.149527546066411,-0.00361113900398219,0.00774875454667802,0.0226787155698438,-0.00717388618168513,0.035821411264495,-0.0117038956202058,0.0220936678063134,-0.000656698657335507,0.0615982789178924,0.0150649262899216,0.0211088982114472,0.0285876345639743,0.0415419180178404,-0.0810405466422293,-0.0109129460095424,0.00796809265929375,-0.00522272751011909,0.0411169040232324,-0.014277535974921,0.023841515113869,0.0423801650902117,-0.0078265218979842,0.00762479795544013,-0.0405465268847745,0.0376863412864706,0.00122909279101509,-0.0382267086321472,0.021415482006258,0.0186343560055791,0.0126234284087667,0.000999704730403522,-0.0205644074864032,-0.0152105734331555,0.0337089589725425,-0.0425858655577223,0.0268550959905625,-0.0122996613392295,0.0303240041692053,-0.0109506348200725,0.000732696745371185,0.048147448794313,0.00625556337494988,-0.0362522476449,0.0259641369207342,0.00112754031284149,-0.0346375604542643,-0.0562690795338816,-0.0539336336097185,-0.0166044221843929,-0.0167769412614714,-0.0146746989947326,-0.0271799609828561,0.0241588234974758,-0.00795213274518056,-0.0314813475254109,-0.0129078279676061,0.0414571747484208,0.00326408125417709,0.0317750739003519,0.0106194245926807,-0.0269098741666926,-0.00940261155341738,0.0179524141867508,0.0174153942039253,-0.0166676893337923,-0.0059337217248724,0.0316960086531655,-0.0788231712375182,0.0029893309895954,0.0311202918976237,-0.0287316398215769,0.0406895760898263,-0.0553480586543625,-0.00497117221867513,-0.0304239063516139,0.0403848650827813,-0.0379014005279207,-0.0106973582190222,-0.00365400272867687,-0.0796179200000948,-0.00854590558180981,-0.066046530682888,-0.0230140672338255,0.0139466244318815,-0.0706883810476879,-0.112051494264725
"MED~tas_iasd",-0.0138024253003064,0.141136146152182,-0.0501936693450732,0.00507223323237596,-0.064536004363382,-0.0530778015801936,0.0277573277101046,0.0348949794332968,0.00613313626134033,0.00624177050751251,0.0146695087769539,-0.0450578154970318,0.0586873542215772,0.0269518332115356,-0.0246134910871051,-0.0784149499523527,-0.0323212267602844,-0.0176974053154662,-0.0190522585162496,0.0212454935939997,-0.0086245402441442,0.0429375551003115,-0.0192813681989271,0.0124626231304476,0.0404740545060905,0.0541223326688781,-0.0344340036036596,-0.00161091330216151,0.0134205492050004,0.0516886705141455,0.00605809764024812,-0.0464578919963425,0.0154068045439801,0.070648571166509,0.0311250224373977,0.0135540134365596,0.0758185923413329,0.0139636099743625,-0.0631141155554167,-0.0130204003975424,0.00451401998283477,0.0519032711732611,-0.0295961351713034,0.00400035567696847,-0.00286395201288065,0.0592497850238723,0.00748406464494802,0.00495709640435564,0.0151143896061392,-0.0379209109195952,-0.010445622953988,-0.102940586803051,0.0165841741024772,0.0124511839994228,0.00162510435420336,0.206099159613106,-0.038835191570058,0.0368499826203436,0.00676029623798546,0.0917975607009592,-0.0225259598941514,0.122872731604455,-0.0286753687124911,0.0508348484367546,-0.206628475760576,0.0308630241829736,-0.0892163194388972,-0.0110366956412295,0.0343836316541395,-0.022023432087452,-0.134629488170821,-0.0813930101618935,-0.0577636322184813,-0.0387935965323782,0.0710010931905904,0.0347657797112559,-0.128694487714264,-0.00366948642670392,-0.0356794387255965,0.0901691728837858,0.0405157427226142,-0.0766943579238176,-0.0256269690308627,-0.0875729025992447,-0.0681208957337603,0.071912724274491,-0.0783125404759602,0.085989621096012
"SEA~tas_iasd",-0.0136968860489661,0.15236987961141,-0.00789640152423399,0.0184487642598433,-0.0111967640143856,0.0250138477403886,-0.0582235044464268,0.0270023349099174,0.00156464060126308,0.0178142395170625,0.0242357389443828,-0.0584588293376408,0.00237231742779781,0.025586840227188,-0.0251347363475591,-0.0263085890111003,0.00708937478877642,0.0148865273632508,-0.0191222540767945,0.00331525828757849,0.00439904031605425,0.0289907271725781,-0.0135232837195183,0.0353329851837329,0.0335126346515465,0.0297896786753779,-8.98920804647436e-05,0.00301272539445943,0.0316394672598465,-0.0162021578557687,-0.00380344836266525,-0.0142644824095146,0.0306484551582842,0.0250161269293789,-0.026520133949871,0.0232509053129858,0.0125838310506653,-0.0194443240846018,0.00528452387944625,0.00564824685327436,-0.0479764514668888,0.012978585559089,-0.00380054258296825,0.029749490298011,0.00678630613377803,-0.0217627571727601,0.000267567902448288,0.0463622755007453,-0.0594731989958933,-0.0203754280830671,0.00342114867449953,-0.010022435770876,0.01009109819785,-0.0838162088288177,-0.0125239962909832,-0.00963600188103629,0.0183869691820516,-0.00952592388068003,-0.00584153310990742,0.013899023322643,0.0267752625695388,0.0318536237555785,0.0869494131576705,-0.0228593198572743,-0.00807695811134684,-0.00450480866987302,0.00274573804352911,-0.0284342360768093,-0.0111799763578916,0.0294703014448518,-0.0307256226902294,-0.0302386477527584,-0.0381816381058355,0.0390049301734762,0.0230698375140746,-0.0659909514515624,0.0820184035231619,-0.0138015971403315,0.0586671188400207,-0.1302025160188,-0.0834422137903314,-0.0666360790436057,0.0276295665325881,-0.018251184392485,0.0385378622364205,0.0761076294842459,-0.01887266140989,-0.0120186530280613
"ARP~tas_end_anomaly",-0.0933738092716335,-0.0212329996998198,-0.0177331385828778,0.0689850935553536,0.00514266988286645,0.0261536578903457,0.00757130038040851,-0.0209320284475202,-0.00813326782596961,0.00340731147325723,0.0369021149139965,-0.0157165698687346,0.0405318783907813,-0.00610126502907153,-0.0323479047079347,-0.0222048428395176,0.0133097287261094,-0.0216584677673989,-0.0225683841289447,-0.000922278380317227,0.0194394306945808,-0.0122901606708615,0.00647124540872444,0.00527564029649136,0.0183967285993274,0.00250947118434661,-0.0125906026957778,-0.00408958113341503,-0.0010590680781799,-0.00409133238115593,-0.0238998999974123,0.0108761748274809,-0.00121701035740658,-0.0044859031630997,0.020429591514558,0.00196601044762014,0.0150538847876877,-0.00899626573766096,-0.00654162227429603,-0.0363674056816684,-0.0250618898058465,0.0103612781905519,0.0264277021836853,-0.0372246638077743,-0.00899460440768072,-0.0287958625379072,-0.0434209804520842,-0.0204458939525141,0.00698084180408625,0.0269450601367742,0.0308674559969083,0.0307164503602761,0.0131703687408956,0.0336522858557463,-0.00395644764325373,-0.0254466281200733,0.000825840426000474,0.0386777232878407,0.0161006344841591,-0.0222742068820765,0.0112310101877379,0.0115686849177964,-0.00109331421974549,0.0327474410626975,-0.0290224713481021,-0.00782516368854754,0.00649066163757943,0.0255948743873083,-0.00489804099428317,-0.014119763690546,-0.0144367749645001,-0.00705771753684907,0.0237237642354145,-0.0307311682801458,-0.0138791885053703,0.0314680272481026,0.0199074591071895,-0.0216732746762893,0.00662295275684495,-0.0145160729701393,0.0601294728694277,0.0410148581507251,0.0468763808096195,-0.00382336247371855,0.036247882396089,-0.0210985602274847,-0.00702395847294465,0.0320921096284424
"CAF~tas_end_anomaly",-0.0931556808117158,-0.00632391829175001,0.0196142694266553,0.0697267224123843,-0.0232360432203652,-0.010065964172097,-0.0261653843014993,-0.00375184596139254,0.00488056750967308,0.0160463692763776,0.00824410990184874,-0.0246951274389323,0.0265043153394887,0.0318212032562512,0.0285912162779245,-0.0776714017474848,-0.00258043977449175,-0.0330838103470215,-0.0261366955590168,0.0218002375972065,-0.0336309786873384,0.0120805154334462,-0.0374770524687419,0.023672397677349,-0.0276071032769715,0.00634178473493163,-0.0292401559384802,-0.0168677812863036,-0.0383078081443188,-0.0172858395557468,-0.00928562676046895,0.00753029604862567,0.000455630213771569,-0.0268383697795507,-0.0194173532545057,0.0211026742442598,-0.0292662988678456,-0.0154742993399005,0.0478348697016669,0.0113219554694526,-0.00430330884461336,-0.0198966415103522,-0.0489805328415584,-0.0509371897966785,-0.0130272490702552,0.0238973727146062,0.0149301705052721,-0.0363933919185334,0.0293104741871635,0.00574060764572097,0.0266464659217407,0.027780664484855,-0.0435010551304854,0.0101828692696082,0.0207061334922852,0.0104918359657421,0.0347505357708102,0.00412918455248966,-0.0212531633447829,-0.0311150603273014,-0.0349406884612794,-0.0531433580963735,-0.00846313861224519,0.0436177875757819,0.0679524460824942,0.00214988523154821,-0.0302400678265515,-0.0666243341113813,0.0069563782939458,-0.0351413648121224,-0.0125711875400765,-0.0509484291337779,0.0220120604332438,-0.00608901973500379,-0.0724206135596904,-0.00372480795685287,0.0097183454620357,0.0798079357256352,0.0292187796774241,-0.0162849198540937,0.0236650272638805,-0.0620721162202431,-0.0702732112469014,0.0197657024746952,0.0272382576231491,0.110380052802802,-0.0115101408971931,0.010173656946489
"CAU~tas_end_anomaly",-0.0927890845573807,-0.014963216481739,0.00730285855110184,0.0803281922122817,-0.0116780168892923,-0.00606053373738919,0.0144874148596734,-0.0091390121904799,0.0184970854547756,0.0181462661699932,-0.0294035310065548,0.0207791211634057,0.0243630862452698,-0.025550209870715,-0.0359970789138146,-0.0392723618806815,-0.0207569395927442,-0.00456276404512669,-0.000991969379173249,0.00872120708498775,-0.0368775362746015,-0.0282726661532182,-0.0270649581278035,-0.0174285841927739,-0.0360693402919632,0.00337323738680855,0.0144674050748057,0.00501449775289431,0.00857022986490036,-0.00230223294324701,0.0185171314567955,0.00817447066552806,-0.000320870222851343,-0.0197973684994115,-0.0235624887683324,0.00253760624708052,0.0262620251034913,0.0322810889337154,-0.00942106788351958,-0.00434011134586292,-0.0243093879478475,-0.015331842122476,0.00415495580486104,-0.0318611202104226,-0.00983260055612537,-0.0203531835505262,-0.0231441072347158,-0.0235181059941918,0.0121258376461386,-0.0399837827577177,0.0285153813774397,0.00992231531506171,0.021098714471169,0.0268410464553331,0.0414661097002722,-0.0369929569227494,-0.0237950377746885,0.00186721183786036,-0.00841991346394082,-0.0324949469972148,0.0231010388227231,-0.0405847874309709,-0.0321167743039371,0.0109070340626205,0.012211951664015,-0.0208892932792047,0.0146013616274421,-0.0588845464150739,0.0223489681205144,0.0211719055353545,-0.0169353305054216,-0.0292431809940564,0.00186017924487399,0.0348626598698427,0.00391990980040511,-0.0574094035381226,-0.00311693140900613,-0.0060314889348677,-0.0583217152930087,0.0276336444991614,-0.0366326988395597,-0.0220640423860695,0.0199902917341463,-0.0277723421364605,-0.0327819571203732,-0.0690184967860124,-0.0496899343085072,0.0262062251833479
"CNA~tas_end_anomaly",-0.0924233022994798,-0.022225377563282,-0.0265610244415278,0.0673547094550103,0.00546196946972626,0.0168204436359983,-0.0220548890440821,-0.0192540441541279,-0.0225528164938218,0.000455112231863814,0.0396035491462683,-0.0226543878325776,-0.0129860241258124,0.00610099688225831,-0.053077089104938,0.0344254855789914,-0.0174751528909332,-0.0577025499294838,0.0076902417954781,0.029046803308288,0.0231528651430327,0.00303656893764247,-0.0283427418221563,-0.00764093394240919,0.0363174917372929,-0.0293254926154869,0.00753438529227341,-0.0183076382884634,0.00392098156986046,0.00922071786502996,-0.00928540127952798,-0.0176964911147344,0.0254272707982492,-0.00592447594250656,-0.00535526660688989,-0.0125317202841657,0.00166950071216904,-0.0136992921373372,0.00223869129412134,-0.014194504511909,-0.0334586334196207,-0.0290388658827436,0.0175010450650219,-0.0276113600953389,0.00856650708042802,-0.00196228753075645,-0.0171170744366327,-0.00819587250432662,0.00352532939243524,0.0309106865116283,-0.0212655797847899,-0.0139560592709316,0.0087230271637067,-0.00842285932865324,0.0167300884099805,0.0139015623756828,0.0210810485681997,0.0525993864295217,-0.0127082596936062,-0.0123996481346691,0.00931595360579085,0.0173819043855396,0.01533456429043,-0.0420425282396501,0.0289005346729737,0.0363957839999025,-0.00142952075927886,-0.0244498149413598,0.0647275601732801,0.0268322246794927,-0.00376706168809968,0.00421138178876004,-0.090368451727561,-0.015168960930988,0.0130891640049368,-0.0526668354244888,0.0506785851950441,-0.0335313245761998,0.0889908127449563,-0.0588206072751289,-0.00654748205828644,0.00253384196177285,0.0346983681141291,0.0526873870465706,-0.015495633411396,0.00816488879836725,0.0220788117896564,0.0287843684324262
"EAS~tas_end_anomaly",-0.0951751133223491,-0.0187974653501926,-0.0189545446334906,0.0521132174053022,-0.000148585769374448,0.011210726560104,0.00906709943685908,-0.028517779859598,-0.0366347303138027,-0.0066829689070593,0.00923275186912288,-0.0212377941406582,-0.00572087054527524,0.00482231409671742,-0.0114861017551675,-0.0317983676594219,0.0153253090167376,-0.0249309493657214,-0.0114681601478677,0.0318108725680707,0.0484378581567914,-0.0243775026837725,-0.00573970195139311,-0.0301373067253686,0.0423526598859874,0.0192017432960791,-0.00643813535937805,-0.000591994901348398,-0.00752525368048884,-0.0204319183209997,-0.012015309652914,-0.0177268666715093,-0.000582283478622667,0.0321100018520743,0.0029081480623579,-0.0371794752024353,-0.00654515114355615,0.0147706479290387,0.0225893816724614,0.0403915193618226,-0.0108896533261281,0.0177444324659158,-0.025709527985067,-0.0178122484603932,0.014368618708609,0.0109006711797128,0.0434236870393849,0.00447254067667332,-0.0282862509782018,0.0216937331344602,-0.0318527547499255,-0.0387882404043373,-0.0247627543848075,-0.0145215149675823,-0.0307391365396032,-0.0242893635168758,0.0393751909380939,0.03289174841365,0.0743354705720714,-0.000960914100222331,0.0338151403505714,-5.5046115210624e-05,0.0120014685466119,0.0516375880380999,-0.0664578444154668,0.0100561717711619,-0.0195621663621803,-0.0560472759775264,0.0236458403628513,-0.0182645448737726,-0.0418826067090617,0.0288957386067523,-0.00559434979607956,0.0377242043029699,0.00512140481066033,0.0617255654582326,0.0280556642120871,-0.0222286279295769,0.0122726501327152,-0.0336233748399158,-0.0445657933948048,0.0367787107613181,-0.002157450686027,0.00929197048775563,-0.0367624731044656,-0.0157348303149502,0.0611006273117652,0.047993836277432
"EAU~tas_end_anomaly",-0.0924541132330107,-0.00843682745925251,0.0049045184855058,0.0837606729646715,-0.0243284953636465,0.00474820238598522,-0.00499943845485827,-0.00486158388858788,-0.00796907214375718,0.0218320427170135,-0.0422635412611724,0.0135263532849062,0.0318279707309061,-0.0210244259897493,-0.0335325940323628,-0.0370719303156042,-0.00635908957844098,-0.00627321453933622,0.0121449656106323,2.45184495461678e-05,-0.020054007806158,-0.0170216267420192,-0.029786195776139,-0.0332133457052856,-0.0367366187749068,0.00220753725225945,0.0287242098194251,0.00806393554951283,-0.00992130754172277,0.0111836410027203,0.0181092021703308,-0.00419578809025137,-0.00590911991943851,-0.0118663262396728,-0.0188527263762256,0.00468239900150689,0.00897458072746137,0.00772809846400368,0.00229893968314975,0.00291314636557293,-0.016282233606025,0.00436565578997306,0.0236645380437921,-0.00852236736572065,-0.0103162397952627,-0.0320711880669102,-0.0313572322446831,-0.0438534346393368,-0.000741378985946573,-0.0176158145207087,0.0250710495794215,0.0291282237218678,0.0343651254114875,0.0231554688559402,0.00265254853428593,-0.0331970415511399,-0.0424196149563978,0.00981112403565973,-0.000926098330633449,0.0122043366038265,-0.000608332718394798,0.0138584027411221,-0.0106296770923681,-0.0116428089841521,-0.0297394166373838,-0.00201197415956355,0.0166513782312117,-0.00148411372110963,-0.000172487251160581,0.011081691102453,0.00272367878625962,-0.025448358129835,0.0278492300669998,0.0223549495393284,-0.0104918243684917,-0.0623489341871441,-0.016859483908147,0.00132036896195529,-0.0641427093503789,0.0469219140100007,-0.0381406305428054,-0.0315550623789749,0.0233077978127749,-0.0657657822195048,-0.0278714179053174,-0.0645766704400826,-0.0416341426738887,-0.0117481739792975
"ECA~tas_end_anomaly",-0.0933896390283983,-0.0206884880154911,-0.0354972285566838,0.0603191318832846,0.0168396542994213,0.0254167551628069,0.0127265205225917,-0.0303020167918157,0.00328262406605674,-0.000343069872670208,0.0175230833415187,-0.0264934965859266,0.0123657674013892,-0.0166088231276681,-0.0155644234622397,-0.0126000513345022,0.0337096983454563,-0.00952878072391694,-0.00438976903739138,0.0118164138193497,0.0316621692868861,-0.0237074997190939,-0.0177567867344449,-0.00375521826435414,0.0234041809068034,0.0139559512301796,-0.0235654547948913,0.00964298601485747,-0.0160643829620829,-0.0108349268595716,-0.00967476627040565,-0.0208581895805451,0.00535167885239007,-0.00898144370421826,0.02357283780394,-0.0140441041748558,0.00670834362810681,0.01247236317541,-0.0197178788770987,0.0219171222005173,-0.039753677790399,0.00096077668646423,-0.016900791864205,-0.0442229551320087,0.00989296154027144,0.0285352020467919,0.00936390457255792,-0.00542794622614437,-0.00537470857335387,0.0350704032332403,0.0263758173037307,-0.0194116020152051,-0.003687419717726,0.00774716478430692,-0.0261720411546332,-0.0184723804148214,0.0153319119698252,0.0290273948064335,0.039523302452348,-0.0108579167235638,0.0256201852176761,0.0343272947703551,-0.0137985971452325,0.0570509975163362,-0.0329014027966316,-0.0311707070794565,-0.00408169373528373,-0.0194398450959558,0.0578803379584537,-0.0315020199009944,-0.0143657632059757,-0.0179731338572417,0.0055928882674148,-0.00625176231148612,-0.00902781105893691,0.0594026975241701,0.0403789922209865,0.00639567233316544,0.0423999044825903,-0.0262539943965216,-0.00638863065648195,0.0831396184497397,0.00324350528654799,0.0493944119061262,-0.0257671383918001,-0.111056390586216,-0.00178849562548893,0.07879308192635
"EEU~tas_end_anomaly",-0.0907298641452777,-0.0322826972540439,-0.0361673276002818,0.0609442312982287,0.0328198990692682,0.00266260819407196,-0.00704225950560013,-0.00179779401902923,-0.0609889205772447,-0.00056348288122001,0.0201142569746535,-0.0307086620558725,0.0146918534095643,0.00433276110689874,-0.0236404410349883,-0.0200631753375743,-0.0221582937822044,0.00552191320566462,0.0120119083429378,0.0501586956476492,0.0149445808264825,-0.0353091449629707,0.00843674977452675,-0.029893537356928,0.0139986610252021,0.00145834029614813,-0.00226976126444922,0.00640938024688823,-0.00272087766979385,0.0104576056581326,0.019535150554356,-0.00631064474686491,-0.00399020228942936,-0.0176327064506015,0.0176926209801629,-0.0230437699324325,0.0379912681251445,-0.0227423983498833,0.0664371074007584,-0.0445235215707337,0.0213433112958543,-0.0128786972447414,0.00493464655782208,-0.0108007589344973,0.00361325107415728,0.0130209045558992,0.0187326897469525,-0.045671851430559,-0.0251517119504931,0.100776814304427,-0.0268961365158412,-0.04491123473545,0.0036072628498306,-0.010800072865379,0.00836810150439442,0.0526349856949947,0.00695303997959911,0.049632674456697,0.0057992975204067,-0.00521137560722018,-0.00174529401721095,0.0345495031541471,-0.0163436093109811,-0.00054664551005151,-0.0425311245449288,0.0248347164780329,-0.0405593856746873,0.0240583978351234,-0.0278301791292971,0.0418810817896054,0.0597612826600124,0.0109865340639911,0.0593332937357864,0.0309382725710433,0.0207867591698587,0.0392282635389158,0.0408983938622117,0.010231278790455,-0.0297503728799795,-0.0645391386311485,-0.0639220749168149,-0.017035611432952,0.0333916352576986,-0.0688473700812492,0.00827449924074824,0.0310480400190329,0.0212704720152356,0.026314035257493
"ENA~tas_end_anomaly",-0.0947524100984838,-0.0168926128202043,-0.022289724099137,0.0550345937861533,0.0145748329715948,0.00921399302632532,-0.00268028351280475,-0.0195349277529729,-0.0407512827885781,-0.00868559501597185,0.0248665292937242,-0.00821526014868383,-0.00141764203569666,0.0153423598087321,-0.0334406843654595,0.00214435381733093,-0.0214324992856829,-0.045624147533198,0.0272313190755409,0.044000574177282,0.0420288193500889,-0.00657623732829752,0.0165154301300821,-0.000226563671391966,0.0341932986734544,-0.0140919699043743,0.0155611335170791,-0.0219485436596727,0.0179686479542299,0.0095543055824435,-0.0206733314801105,0.00512906637740642,0.043552519831493,-0.0020403530417613,-0.00532035404380465,0.000474332803711694,0.00209266860113976,-0.00768288813114607,0.0176643329891724,-0.00301011247680276,-0.00999817955872406,-0.0340454421483518,-0.00764141749049816,-0.00806821405710477,0.00595796581276178,0.000225887349542694,0.0099561101718819,-0.0139259159629352,-0.0152938248463298,0.0389171287936287,-0.0408182995986432,-0.0300442164462457,0.0188248365791943,-0.00941749360911171,0.00231884564997367,0.0261621435003161,-0.0385369182578212,0.0233601195797433,0.0198934064380613,-0.025295952909407,0.0337183924510024,-0.0292207555303429,0.00189558604191038,-0.0275397559952362,0.0129768464448082,0.0402274747854036,0.0119798007779182,-0.0143387266900527,0.0298360022084449,0.00840116799482761,0.00274643165236931,-0.0111930047889985,-0.0707632110769883,-0.0177020796763561,0.00661194783194549,-0.0473803663073388,-0.0160816997111847,-0.026615124204217,0.0380324746474772,-0.0225570044130329,-0.00713268765756449,-0.0264115701800008,0.00545554854646515,0.0429930492833442,-0.0144041154097121,0.0201398291475007,-0.0474446118487896,0.000108131246374476
"ESAF~tas_end_anomaly",-0.0931767895978753,-0.0119056628829736,0.0106627367805942,0.0799343371740074,-0.00643958641017773,0.0140602273956675,-0.0201523803610607,-0.00472376612560881,0.00509751621297592,0.0235595108975689,-0.0142790563464844,0.00725994296230934,0.0382810748822471,0.00756759320098293,-0.0177229840045912,-0.0566854345906001,-0.00419037931122726,-0.0162348305876052,-0.0142225748308927,-0.0263577460504902,-0.0138706790427377,-0.00699157737912031,-0.0160330129409279,-0.0190785278452134,-0.0235949368348754,0.00468562078782676,-0.0167927591791769,-0.00234669455534474,0.0099526463917049,-0.0104446465673251,-0.0121769479776064,0.0105746396504338,0.00178344804730369,-0.0116470788775691,0.0162240467307913,0.0220251370118226,-0.00338696927600342,-0.013028411570571,0.0113540459329804,-0.0197525793200113,-0.0216969484744091,0.000579110678356496,0.00953931800849632,-0.057266539931799,0.00458805265565492,0.00155815210459969,-0.00343827211549128,-0.0289313238355843,-0.0201142095919438,-0.0182700377511793,0.013920017121262,0.00711749718756003,-0.0112703553557757,0.0232585356466979,0.00120237097318032,-0.0489470023699877,-0.00898983675440678,-0.0100962050957312,-0.00541832691592251,-0.0356737973910882,0.00490002124996336,0.00649212057464018,0.0104671890010005,0.0110538806686634,-0.00244633397786324,-0.015308543240857,0.0237654099904711,-0.0285151524632623,-0.0114450847974665,-0.0120124590454022,0.00540273564568956,-0.0297803436407377,-0.0173949545788111,-0.0303368837952023,-0.00669987258110035,-6.32498443446403e-06,-0.0300560641734596,-0.00525539118016066,-0.0124312763695298,0.0175065278840483,-0.058876823825185,0.0331720976556778,0.0239301852748328,-0.0131493375145599,0.0337499076587318,-0.0517492160155175,0.00647568773928467,0.00324976272845452
"ESB~tas_end_anomaly",-0.0926231229829974,-0.0197919051305095,-0.0410120551892717,0.0549579149781006,0.0329057488067238,-0.00197324552611708,-0.00156461721322137,-0.0199192130017416,-0.0565520982630568,-0.0150751189852192,0.0140413708944847,-0.0220994820172638,-0.00943619739978838,0.0187060059053369,-0.00487740731534929,0.0213869419115675,-0.0015181036860477,-0.0124781080662604,-0.00024041105374285,0.0295406339841592,0.0246716131965548,-0.0576075031532761,-0.00583476617497859,-0.00532752389361818,0.0164016476837663,0.0118850282193945,-0.008789799031252,-0.0137656710568262,-0.0282235249527409,0.0213975764882119,0.0110492213511432,-0.0352723290380308,-0.0143763512585641,-0.00100827630799104,-0.027011596367481,-0.0278655176384791,-0.00557107353436417,0.00276443675129731,-0.00814697962648312,0.0295606129293484,-0.00488473827111695,0.0117284930138181,-0.0210845377284802,-0.0305810310805445,0.00816918471465722,0.04955930711177,0.0181235909430749,0.00634501941536546,-0.0149500703821442,0.0466378792445389,0.00719828619230028,-0.0243777409266885,-0.0328392577617416,0.012673927596495,0.00197882530641928,0.0121153165729656,0.0137764895546177,0.0233075467207661,0.0512318637714975,0.00293639875068425,-0.00526710249954863,-0.0290087761256429,-0.0230721798069219,0.0424255574084633,0.00313191195461996,-0.0133711618868151,0.00404753876545805,0.00790839452821893,0.00160911746919264,-0.0278955085153191,0.00765010548899692,0.0128215786531992,0.0200653967096271,0.0108342817548933,-0.0265591008694332,-0.00707816452631868,-0.0159266441015547,0.0104448514581666,0.0606275142472817,0.00540785639386578,-0.0380339068518893,0.029972407315539,-0.0661811300595619,-0.100546435818636,-0.0397728779691967,-0.0506460242497046,0.0351583727741433,-0.01237398057753
"MDG~tas_end_anomaly",-0.092235760452092,-0.0116825971698326,0.0147995617793491,0.0887757558141531,-0.00129550151135844,0.00143976636978083,-0.0215369754909477,0.0074461188035452,0.00251476183772495,0.0309183605477367,-0.000411575187033131,0.0108379728583865,0.0341197838885933,-0.0121702904292576,-0.0159902125089233,-0.0368889100203175,-0.00378999462057107,-0.0115413171560854,-0.00693669582628237,-0.0125238966601319,-0.00313108684652792,-0.00581070761971775,-0.0111332444648911,-0.0114070259647941,-0.0260282687449874,0.00689745970450356,-0.010926861851872,0.0081494145134759,0.00995512742369954,0.00586101649314976,-0.00357570105286705,-0.00318816846854687,0.0149288882300998,-0.0135685509788248,0.0062591402915913,-0.00136003754960539,-0.0100019769435852,-0.00362756118682772,-0.000565487569639478,-0.0175533224742442,-0.0182076507697955,0.0118079572518727,0.0100011538192418,-0.0283713887800082,0.0130360619882262,-0.0276069770213257,-0.0236560003557983,-0.0366462425087755,-0.0227511006653531,-0.0109431476288773,0.0260708999473493,0.0104159055333461,-0.00291006771698112,0.040860393185348,-0.00178395601278718,-0.0124500446514042,-0.0229934176010548,-0.0129767181039929,-0.004270541805789,0.0259961947703447,0.0389894935214336,-0.0155787610833993,0.0146898000028702,0.00957006255615715,-0.0239747990400937,-0.00488394459353002,-0.00814582786925096,-0.0179464316260404,-0.0186896996042901,0.00655017240478435,0.00745789018895124,-0.0343089503498083,0.0159647038591556,-0.0479552179135254,0.00636815191047593,-0.0310534196784616,-0.0192930673809667,-0.0409852203873285,-0.0179155036994399,0.0238377679727021,0.00405154860547422,0.021869202373495,0.00218073926949043,0.00534398078047809,0.0181788688450426,-0.0529539081504749,-0.0117958984428059,-0.0640778060148285
"NAU~tas_end_anomaly",-0.0928388218388561,-0.00968152332292733,-0.00286357832388719,0.0858342157568461,-0.00803297873315595,0.0106939688013467,-0.0124745727896341,-0.0063939792439126,-0.00237986776619011,0.0205948798000801,-0.00884971937432613,0.0186520069154881,0.0338571437631034,-0.0145541376417546,-0.0151345619588616,-0.0443338959372629,-0.0108057450331434,-0.0390522289912192,-0.000731435896252286,-0.00986578386195226,-0.0128168107256678,-0.00951975732167319,-0.0230096980158067,-0.0195391064721431,-0.0109862081094678,-0.00577003253126029,0.0305022068011113,-0.00234732742320232,-0.00445425135979262,0.0110301755310791,0.0188443625156125,-0.00669747530823666,-0.00552755287066981,-0.00739003673813671,-0.0041564762224832,0.00517456225885161,0.0026950130740513,-0.00692771932196262,-0.00618981098452016,-0.0140068699353771,0.000290828175956943,-0.00144696632522018,0.00107543432216687,-0.00607734092778132,0.0026746076359392,-0.0171447348363822,-0.0470788319738287,-0.0506487005498869,0.0162396857253845,-0.0159413648427234,0.0212873974333255,0.00372594824514718,0.0300241783679996,0.0241981280588311,0.00371094644546018,-0.0110677876276338,-0.0283904323486449,-0.0230649416350534,-0.0375515845320832,-0.0130489303556609,0.0238665714362352,-0.0169244841772255,-0.0461944872338982,0.0129466667149109,-0.0266637072491034,-0.0222136357976417,0.00504900895763869,-0.0427723298246828,-0.00251123269891092,-0.00431799523031629,-0.0337899577103941,0.0340916516681716,0.0025978979123612,0.0222105575799898,0.00551129012417281,-0.0310929278041584,0.00782674565359589,-0.0375821683897982,-0.00825478354925965,0.00161054887401954,-0.0132547490253999,-0.00741629132981355,0.0253792962575479,-0.0166359870917793,-0.0301818278419719,-0.0780625024330587,-0.010007173512474,-0.0686067886549771
"NCA~tas_end_anomaly",-0.0925712062876395,-0.0169500555041512,-0.0289079820388233,0.0676986027398815,0.0109846043536,0.0306699180290342,0.0150787066416009,-0.0172505671860592,-0.0229987459626931,0.000827270155495722,0.0405242183842394,-0.0213363638083497,0.0239271285590646,0.00850542062915077,-0.0615818491258097,-0.0228021335087676,0.0105532125171979,-0.0431821050444234,-0.0121326186151374,-0.0114568994400488,0.0110592596221354,-0.0256588754658649,0.00486838565087548,0.0279342672732186,0.0297484962989861,-0.0174358434693387,-0.00792280027360351,0.0130226269911958,-0.00528191753359725,-0.000452275349788079,0.00827909792715393,0.014754119496658,0.0067281572645237,-0.00489921635477995,0.0047794577224065,0.0231316464702189,0.016272233074269,0.00154474387583806,-0.00944513976513134,-0.0164860421990561,-0.0245262473355447,0.00317548037324562,0.0220910120839903,0.0245291706363497,-0.0114460824170512,-0.0078987521012474,-0.0147168289496385,-0.0129879125079224,0.0117227127823346,0.0159738768704501,0.00174328634215957,0.0134757944019851,-0.00334106556921487,0.0329353167474017,-0.0132140221588996,-0.0124459026977978,-0.00545419417414794,0.0380190324083399,-0.00646345147169595,-0.0134732449559385,0.0104578957264504,0.0168889527677759,0.00491771259516669,0.00776392485567823,-0.0191338639131406,-0.0203903694860925,0.0163775347911468,0.0281012364848606,-0.00712270960136497,0.0069742371225354,0.0157727554773291,-0.0536647840209732,-0.0395821382679779,-0.0625751033387711,0.0246167942658425,0.007082957359994,-0.00582020292711946,-0.0173171645815909,0.0159578333182706,0.0197863201746135,0.0365456433690506,0.0177924332456287,-0.0231452639569082,-0.00863563164855464,0.0052456527772558,0.00125342818629692,-0.00850549611966198,-0.0634763881650525
